5.6E-45	-2.4953327E-25	0.012411816	6.7823246E-4	-8.9050427E-17	7.0269307E-37	-1.0658293E-10	-0.0011533948	2.211965E-11	0.0024647955	1.5769796E-4	4.26543E-36	-7.1940887E-10	7.462217E-5	0.024015568	1.6170644E-26	-1.929621E-9	0.003698652	-6.434919E-4	0.025412	0.019097723	-2.0361801E-6	-1.9698674E-13	-1.4E-45	-8.326802E-10	0.011762757	1.6588923E-13	-0.0021387762	0.016820444	-0.020038342	1.9000154E-5	6.698302E-31	2.4896514E-4	-0.0010129252	-6.6755543E-4	-8.2305365E-7	-0.005069686	3.422958E-9	0.003900797	2.1774854E-7	-2.6161168E-16	1.4E-45	-0.030998059	6.357947E-26	-0.010117078	2.362862E-12	0.018327195	4.1924604E-6	0.008974236	1.4235253E-6	0.008130069	7.3160176E-5	-4.2E-45	4.7982883E-20	-0.0030207862	-0.016624177	0.0017455193	-5.6E-45	7.2588E-20	1.2288892E-10	-0.0073873	-4.313884E-25	-0.0011342221	2.788741E-11	-0.009274803	1.646755E-7	0.0141044315	7.8716475E-6	1.5804048E-8	0.0	-0.011087848	4.631026E-8	1.7242165E-29	0.0172483	4.6420128E-11	-0.00495009	-0.006466605	-8.03336E-11	-4.859066E-5	1.4316295E-4	4.2E-45	-1.6210075E-11	-1.4E-45	1.4E-45	1.50191645E-5	2.4217862E-4	-7.0E-45	0.020828525	-1.3521816E-4	-1.1039642E-4	3.9931994E-23	8.1220013E-4	-2.9866744E-4	3.929803E-5	-0.020044876	0.010433293	-7.9624075E-25	-0.0014656588	0.0057416055	0.0	5.5884997E-10	-5.6E-45	0.0025392608	-0.009912119	-1.4E-45	-8.724949E-5	3.442801E-4	0.010179335	-0.003707656	-0.023202958	-1.242E-42	1.0138329E-4	-9.970729E-6	-0.020404233	-0.0054123793	0.00755175	-5.574532E-14	7.0792865E-11	4.2E-45	-4.0471484E-4	-3.54652E-4	0.0017863768	-5.9243202E-6	1.036999E-39	-0.0017332089	-0.018729974	0.011075648	-0.008009272	0.005468929	-3.5980584E-8	2.8E-45	3.2781769E-28	-1.9749834E-5	-0.026184926	0.015140852	0.0013683653	0.005445379	-2.1134467E-21	0.0054995585	0.0013244887	-1.1306576E-12	0.025552219	-1.12847694E-7	-0.0038812365	5.383711E-6	-1.1952273E-12	4.2E-45	-0.010551205	0.0026743063	0.01725292	-0.02529963	0.011814279	6.831977E-5	-2.7415598E-10	0.013887466	4.5890165E-24	-8.129142E-17	3.352568E-5	3.035303E-9	0.03017853	-5.102029E-19	0.0073805405	2.7614925E-4	-3.2231856E-8	-7.9678174E-4	4.2E-45	0.0010516985	2.336943E-4	2.4002131E-4	3.0643822E-4	0.0013637423	2.9509281E-5	-9.157738E-8	1.0676306E-34	0.018941347	0.0029752897	-2.4192476E-8	-4.6E-44	4.0E-42	-0.0013483358	3.29882E-4	1.4E-45	5.6E-45	-1.1914467E-10	5.381686E-4	2.3463223E-5	-2.3050866E-19	-2.1179141E-12	0.0021133895	-8.0707556E-5	1.817E-42	-8.349782E-6	-2.8E-45	-2.4517239E-11	-4.094282E-34	-1.1889315E-6	7.7254745E-9	0.026934577	8.5E-44	0.0
3.22047E-9	0.013246541	-2.2491616E-4	0.012284366	-1.0625434E-4	0.0066085095	-2.0869568E-11	-0.003758283	-9.755007E-4	-1.4E-45	1.2530632E-23	5.6E-45	4.9502E-41	-2.0878362E-12	-1.9975356E-8	0.019055482	1.15268405E-4	-0.0026292573	-0.0022835098	7.5462636E-10	-4.487593E-16	-9.162593E-5	0.0	-0.032663334	0.03205604	-5.3298278E-5	0.011235219	4.5064214E-4	-0.0026603271	-3.391589E-4	0.02872344	1.416379E-26	0.012664864	0.0011681595	-0.0057135113	1.8223267E-13	-4.2685317E-12	0.028086917	1.4E-45	-0.005967882	7.5592524E-8	8.328884E-21	0.031462707	-5.615338E-5	-0.0015660053	6.4485935E-6	0.01882977	-0.0015504935	5.2703882E-8	-2.3402172E-17	2.828315E-8	5.369464E-4	-0.017497212	-1.4E-45	0.011235361	5.9613494E-6	1.4E-45	2.623402E-10	0.0011195968	9.137946E-21	-3.1739174E-22	1.1340682E-23	1.9630023E-17	-1.4E-45	-0.0021910516	-2.0267187E-5	-1.3506362E-6	0.0	0.018771613	-0.010598496	-1.2237314E-7	-0.0015334866	1.8315039E-6	0.00516096	-1.9187391E-5	1.4163031E-5	-1.3893195E-4	1.0767744E-9	-1.0964198E-12	0.002131842	-0.00874682	-1.4E-45	-8.261173E-6	-0.0038398847	-0.01683108	0.0	-8.7177755E-35	-0.013934057	0.0	1.1963338E-6	0.0076297107	-1.8428553E-5	-3.213009E-8	-4.3668845E-4	0.0014525298	-0.016422536	0.0	0.013795093	-1.4E-45	2.7058669E-9	-7.0E-45	-4.6597313E-4	0.0019041123	0.011590972	-3.5099838E-37	1.0175077E-6	-7.0E-45	-7.8908786E-5	2.0069918E-11	1.8788128E-7	-3.109692E-4	-0.01884493	0.020894136	0.007438534	-4.080069E-18	0.006519514	-0.021198181	0.01331423	-0.009708842	9.453969E-36	0.022994585	0.0018627776	-7.5887743E-4	5.9998215E-11	3.934208E-37	-5.1076204E-4	1.1115714E-30	7.6975354E-10	7.09594E-8	0.0014457323	0.016967092	1.6281358E-8	0.024814831	3.454705E-4	-7.413842E-7	0.0013441225	0.0	-2.7015473E-10	0.009290285	-8.324422E-12	3.5248987E-10	-0.0035380472	-5.959125E-6	0.0021492115	0.0063939076	-1.1849015E-21	0.010814108	-0.023768766	-1.7427857E-6	3.823534E-15	0.013529608	0.0071892967	0.0021182778	6.712607E-18	0.0019127153	-5.6E-45	-2.8E-45	-0.011622636	-3.6410888E-10	0.011826306	1.4E-45	-1.8447475E-13	-4.2088974E-5	-1.876889E-7	0.019248819	-0.011721558	0.0012798425	4.0678066E-4	0.007760484	-0.0011854308	-2.8488113E-5	-0.009206178	-2.1892496E-34	0.007896207	-1.7488454E-15	2.8E-45	7.0E-45	4.3797663E-22	-7.124888E-5	3.3293585E-5	-5.6E-45	1.5022855E-5	0.0	-0.012593355	-7.0E-45	6.0230686E-4	0.030983191	-4.1514318E-7	-2.493107E-5	0.02282513	-6.1224746E-8	-0.021025386	-1.7857017E-34	0.0	2.6731213E-4	-8.4088626E-8	3.6931454E-15	-2.980535E-4	-2.4218029E-5	-2.188291E-12
-0.004034766	0.0	6.760995E-15	0.025397649	6.513145E-5	-5.193924E-37	0.011662889	9.16794E-9	0.011403022	1.8585673E-5	0.030415675	-0.017483471	4.7569547E-6	-0.00637191	6.433967E-4	1.0967395E-14	-8.116376E-11	-8.79199E-12	1.3557894E-34	-3.4671675E-12	0.0056336327	1.847827E-5	-0.018469537	-0.008844083	-2.214172E-37	-0.008040753	3.916279E-28	0.0	1.4E-45	1.3857099E-4	-0.0020154384	-4.2E-45	-0.005123341	-3.2834176E-12	3.502107E-4	-1.091246E-6	0.0	-5.5695375E-21	-6.9027266E-7	1.2859948E-5	-7.9496583E-4	0.0	-5.6E-45	-1.4E-45	-3.4499215E-4	-9.9506375E-5	0.015532312	-0.001711213	-1.682184E-4	-2.8E-45	-0.0055137505	1.0234038E-6	1.4E-45	-0.009795266	3.0916276E-11	-5.629936E-7	-0.0017484219	7.756435E-4	7.772279E-8	-0.0018196894	3.705698E-17	1.0733759E-14	-0.012586696	0.0014870712	2.5093375E-4	1.5966615E-16	0.020684408	0.027859256	3.21E-43	-0.006495422	5.822339E-33	-0.03063449	-0.022832185	9.644998E-4	-0.01969504	-1.2459812E-9	0.026691025	0.011721497	-4.7825E-41	0.0052627013	0.0096570635	-9.241531E-16	-7.390174E-4	-6.423852E-12	-0.013693325	0.019581772	-5.6E-45	9.740407E-10	-3.820055E-5	2.6542506E-5	0.0	0.013385769	0.006362433	0.014015747	0.0025486893	-5.3106214E-6	-0.0014218024	0.01693699	-2.2608696E-5	8.4E-44	-8.6601464E-16	4.4504867E-4	-0.0011079438	1.4E-45	-1.2012347E-10	-3.720677E-39	0.020434208	1.6778177E-28	0.0	-2.8E-45	2.1221547E-4	-2.2504087E-8	5.274533E-12	0.007625282	8.271949E-25	0.012549875	-0.011996593	4.4712456E-23	-8.160059E-13	-4.2E-45	6.3069775E-30	0.0	-3.979472E-5	0.0	6.9546746E-9	-2.4968964E-14	-3.8203107E-6	-1.5565812E-20	2.9154491E-4	1.4E-45	-6.615524E-4	0.0151200555	-0.0064728	-0.005701158	0.0015828862	-7.1990123E-4	0.031394534	-0.015740002	-5.2379747E-4	0.0	3.288508E-6	5.084058E-7	-3.1323227E-5	-0.023550777	7.839162E-5	-2.439744E-7	-0.027204078	-0.016234534	-0.014535833	-6.3627915E-11	-0.005639876	0.007914796	-0.0027372108	-2.9583117E-7	4.2E-45	-1.2067646E-4	-1.768E-42	3.168E-42	-0.028323548	0.0026180923	-0.017440155	0.0011083992	0.019356195	2.8E-45	1.1057165E-8	0.0073728547	1.8113626E-5	-6.452166E-5	-0.031212373	9.776968E-10	-0.009434775	0.0	-0.020111583	0.005071792	4.450114E-5	0.017921165	-0.019958243	0.013080658	-5.6409346E-5	1.6709014E-4	-0.0035548625	1.0418649E-5	-1.4263157E-6	-0.020387257	0.029683346	0.0	-0.0083729755	0.0010433034	7.17591E-5	0.0	-2.8E-45	1.3796938E-7	4.7063423E-34	0.004299632	0.02499712	0.005506252	-3.389356E-26	0.022276329	-0.005519069	-1.4E-45
-7.592575E-4	-1.2466564E-18	-1.6354979E-4	-0.023942554	0.0	-0.028969184	0.0065380824	1.4E-45	-0.0010025939	4.2E-45	5.940403E-12	4.3568295E-7	6.75478E-13	-0.008672939	4.2E-45	-1.4E-45	-2.6467803E-4	-0.008747947	-4.4735192E-5	-0.01699499	-7.1959084E-37	0.0011608037	-0.010767186	7.4856107E-6	-4.852174E-23	1.4E-45	1.9475482E-4	9.498773E-6	-0.017082265	-2.8972037E-12	1.4E-45	-1.8633168E-11	-5.6772384E-5	-0.030812433	-5.344067E-14	-0.003196259	-2.6167177E-16	2.7140445E-4	-1.5475742E-7	-0.02261399	0.0	0.021972815	0.029923052	1.4E-45	0.009918573	-1.2055905E-4	7.43242E-18	-0.013610681	0.0011628637	3.2839582E-15	0.0	0.004356548	0.0	-4.2E-45	0.0102063455	-0.008240949	5.6E-45	3.5521374E-14	7.0E-45	1.1645106E-6	-0.016597059	-0.0077017946	0.0058150734	-0.015142219	-7.885796E-4	-5.6E-45	3.828517E-6	6.678491E-10	6.986238E-8	-1.0412783E-11	0.0057264934	0.0	-1.4680521E-5	-2.8E-45	-2.105564E-18	2.3016348E-14	0.0013411576	-5.6E-45	0.0047841654	-3.974457E-4	4.2E-45	5.6E-45	-0.0029090429	2.6440139E-6	0.008539731	0.0057286792	-0.0018975319	-8.9348806E-11	0.016739449	2.7561698E-27	0.0054530967	8.298193E-15	4.3598448E-8	-0.008254155	-1.4612889E-6	0.013822793	3.5622952E-7	-0.0027552797	0.0072180755	4.3861892E-8	0.023981918	0.0040839408	0.022010634	0.0020870245	5.6E-45	0.007840928	-0.010385375	-5.060301E-7	0.0	0.011692922	6.266837E-13	-1.05E-43	0.00521221	-1.3220221E-4	-0.01575404	1.7302273E-14	0.007971783	2.956474E-14	-4.2E-45	5.2045706E-8	0.001260289	-4.7639534E-7	-0.02188503	3.9152525E-4	0.005681946	1.0954337E-31	-7.513249E-9	-4.2E-45	3.0108466E-12	-0.02863314	3.9562618E-4	0.02033292	-1.622E-41	-5.808048E-11	3.0838106E-5	2.6179064E-6	0.0	3.9525737E-8	-2.2324892E-17	0.0026495955	0.008613052	-9.720098E-5	-2.993327E-11	6.895809E-11	-1.8914975E-4	-0.013672852	-0.0022641176	-0.0068263626	0.0021369122	0.027626656	-4.9904568E-8	-4.2E-45	-1.9245407E-7	0.0	-0.032662123	2.522789E-4	-2.1300846E-8	0.0058441707	-1.3484513E-5	-1.66594E-28	0.016592763	5.8334545E-28	2.9337771E-12	-3.5037688E-9	2.2534486E-36	-0.024870342	-7.668234E-14	-2.1241841E-29	5.5094337E-5	1.1658318E-30	-0.009357064	-0.030247966	-3.2633307E-30	-7.343771E-27	-2.8E-45	-7.911513E-7	-1.4E-45	-6.438E-42	0.0	-1.0663314E-23	6.202235E-6	0.0055576344	-5.5154744E-19	6.9816626E-12	0.012994062	3.6962024E-11	0.0032470592	0.001184837	-3.7088617E-15	-0.024323352	3.0755203E-8	0.01656263	-5.8251136E-4	4.7520302E-6	2.865313E-11	-1.996277E-4	-0.0022423272	-0.012542087	-1.5026809E-10	0.0
-8.646433E-30	3.9832102E-4	6.7618897E-37	0.0017681762	1.4053237E-34	-4.901484E-5	0.030290592	1.5744422E-30	-0.021377921	3.8050814E-14	-0.019600198	-0.015588458	-4.483136E-6	4.0322477E-25	-1.4E-45	1.2657645E-32	1.9346577E-25	1.2541845E-16	-0.016081203	0.001294983	-8.264703E-9	0.028527027	2.7379533E-4	-7.0E-45	1.4E-45	-1.9339279E-5	-1.8193988E-25	-0.0070544295	-2.6264634E-6	1.28425E-40	0.0021484678	-0.00264833	-8.2528796E-11	1.9700368E-4	0.0015299834	1.1137597E-5	1.621938E-4	0.0	-2.8335643E-7	4.2E-45	-0.014592154	-0.013946122	-9.108645E-6	0.012099529	4.2E-45	-8.369696E-5	-3.690952E-14	-0.01398375	-8.0597016E-4	-2.4252358E-6	-0.0030206959	1.3839474E-4	0.0011006909	1.875632E-8	0.014331884	2.500458E-7	1.6161605E-11	1.3515786E-5	2.84195E-4	6.6118216E-4	8.458925E-5	7.369934E-6	-3.3002983E-8	-3.6323633E-10	-1.0023482E-17	0.0	0.0015571535	-0.013618895	0.024534697	-6.0900315E-6	0.0029544781	3.4183132E-16	8.258317E-5	-1.2829661E-4	-1.4708799E-7	-8.040478E-13	8.840247E-7	1.7106264E-4	8.108002E-9	-0.0041026715	0.003186546	-7.333357E-26	-0.010787536	0.0032724293	-0.011661373	9.879441E-6	-0.0288971	-6.293725E-6	0.004010634	-5.1735604E-8	0.0016072156	-2.328762E-31	-1.00815045E-8	2.517263E-13	-8.8984584E-11	0.02089193	-0.027216565	0.026209982	-2.2912063E-5	-0.002689778	-0.016607704	-0.011150258	2.2907171E-4	9.844913E-30	-2.0335497E-15	0.011240426	2.0895789E-11	-4.2E-45	1.4E-45	0.017024003	-8.201621E-13	-0.019155934	-8.63E-43	1.99895E-5	7.693783E-6	-0.015651403	-0.0011923945	-2.8E-45	9.91891E-33	-0.005756545	-0.0012810546	0.026548669	2.730355E-18	-0.009406424	0.0	0.005030799	-1.4096349E-4	-2.8E-45	8.129815E-15	-0.023202688	1.4072389E-4	-0.018151112	0.014110839	1.5779221E-14	-0.0047450177	-0.016487109	0.0074300896	-1.5351549E-4	0.021278469	-1.045732E-26	2.377769E-4	0.02053002	3.563727E-6	-0.0011164742	-0.022580663	-0.009299374	-0.0016520827	-0.012979546	8.402886E-27	-2.9312737E-16	-1.6068768E-4	-1.0319294E-7	-6.792289E-4	4.948881E-5	8.451407E-8	5.9476023E-4	0.0033286733	3.0538897E-5	4.2E-45	1.26E-43	-0.022742318	6.222281E-7	0.008885402	-7.605865E-7	0.003808146	-1.1486479E-11	0.001024457	0.007146698	-0.01940532	-4.495313E-4	3.0911794E-12	1.913801E-5	0.0	-5.6E-45	2.5257137E-25	0.0013808175	-0.028005112	-9.642693E-14	-5.4460443E-6	-4.7312486E-8	0.0013060801	-4.2E-45	3.977013E-5	0.024323588	0.018503712	-2.8E-45	2.9220074E-4	0.0017056222	1.267254E-5	7.613229E-4	0.003802627	-7.1775534E-16	-8.6328784E-11	-7.675666E-7	-0.02074789	-9.1212854E-4	4.2E-45	3.4729335E-5	0.03296771	0.018723613
-5.0413263E-7	-1.4E-45	2.0799262E-36	-7.096219E-14	0.009583503	-1.3994601E-7	-1.5694528E-35	-0.009211515	-0.0011805135	-1.9333436E-18	-0.0047291555	7.500746E-8	-0.005916705	0.0	-1.1197506E-24	-5.6E-45	-3.627177E-7	1.7550912E-23	0.01576461	-0.020944186	-0.0027301873	-3.8335416E-35	-5.102337E-6	-0.0049483576	0.007695446	4.839674E-8	0.0030868847	2.4762371E-6	0.023331892	-0.013705811	0.0	8.7136467E-4	0.03269262	-0.008909292	-2.1567072E-8	0.025685666	0.0033999118	0.0043964055	-4.2E-45	-8.326778E-4	0.010034161	4.7222123E-4	6.856656E-8	4.5770553E-22	-0.0027302424	-3.2518457E-7	-5.5380966E-5	-1.6024634E-7	3.4541068E-11	-4.126193E-9	-8.877795E-8	5.914327E-15	-0.0025446261	0.005425928	0.017446972	-0.0046908692	-0.028557414	-0.010838028	1.2706811E-4	3.5276037E-4	-4.103026E-4	0.007438581	-1.4E-45	0.013774643	-0.029921241	-0.017622955	-0.027400708	6.815166E-5	8.941805E-13	0.029211227	4.961296E-5	9.103147E-6	-3.8053898E-20	-4.3181048E-5	7.4117515E-6	-0.005978709	-6.025231E-17	0.006472548	1.2699715E-4	2.8E-45	4.4784666E-4	0.0	-8.6082406E-7	0.021980757	5.9106466E-9	0.025925023	0.0	-2.8953212E-10	3.4276026E-9	-7.9720584E-4	-0.0012832538	-0.0032565584	-1.4E-45	5.6E-45	1.4E-45	5.9941185E-10	-0.03081211	1.517509E-24	0.010140339	0.001769737	0.004835767	-0.02632763	0.0049275463	4.2E-45	-1.9592866E-4	-7.802148E-22	4.1039834E-9	-4.918036E-4	-4.2E-45	-1.4434637E-5	-5.6E-45	-9.218575E-15	0.0016387453	0.0	-0.011247766	-5.6054537E-22	-2.6887128E-5	1.54E-43	-8.212813E-20	0.00119109	-7.0E-45	-1.8275019E-6	0.011229532	-4.0293564E-9	-5.165119E-5	0.0	7.970681E-4	-7.424008E-33	-1.7917193E-13	1.8921868E-7	-0.017705195	0.0060773715	-4.34896E-5	-2.9114994E-13	-0.0025533054	-4.2E-45	-8.9221256E-5	1.0481701E-6	-0.025382614	-0.008317861	0.0060830885	-9.1888305E-6	1.7187402E-33	5.6E-45	-5.6E-45	2.9939973E-5	-1.1061836E-18	0.001673094	0.02089961	-3.0418453E-4	-8.307583E-5	-4.0596138E-14	3.620004E-21	2.929799E-7	0.0021114112	-2.8E-45	0.003420278	-1.4E-45	0.007656926	1.3337871E-8	0.029713973	-5.6E-45	0.028473398	0.0016388692	-1.4301325E-15	4.4728082E-4	3.713024E-10	-1.7308674E-20	-0.032075226	-1.2012833E-6	-0.0012880843	0.007986702	0.014562831	0.016467994	-3.535582E-8	1.349817E-4	-2.2141992E-5	2.3296161E-5	2.5735536E-4	-3.6243883E-11	-1.5611509E-7	3.456801E-11	-6.634076E-5	4.3578207E-4	2.1227826E-9	0.021912724	-0.020544292	-1.4E-45	-0.007106633	0.010243444	0.0044153105	0.006463907	-8.669224E-12	-7.605836E-26	2.925456E-20	5.5725736E-6	2.8E-45	8.136915E-34	0.012235254	0.004253775
0.0013379885	0.019459622	2.9390324E-11	-9.063392E-11	0.0015603036	-4.286024E-6	-0.0016923555	1.6878286E-5	-2.5248852E-7	1.4E-45	2.8876395E-5	3.7930487E-4	-2.242291E-14	-0.014164252	2.8E-45	0.0010949497	1.4E-45	-1.4E-45	1.4512599E-6	3.587922E-21	7.932531E-13	2.4390328E-11	1.4E-45	0.03297179	6.6776866E-30	-3.858168E-6	-0.0039844904	-0.030676296	0.0074386955	-8.2693016E-4	0.0017859488	-2.8E-45	0.02218672	-2.5096094E-26	-7.177946E-22	0.0	4.6003555E-4	0.020801384	-1.0747177E-4	1.4603465E-7	1.0401318E-19	6.99986E-13	-5.8747604E-30	0.002063051	-4.8526793E-8	-0.023955844	0.0035663329	0.0	-2.0127178E-5	-0.0045400877	0.019365815	-2.8E-45	-5.626628E-37	0.020348068	-7.315293E-5	-0.023114786	9.740723E-6	-0.0053326376	-0.029297959	-0.027470335	0.011062179	-0.0021737397	-3.4889188E-19	9.19384E-11	-2.7646515E-25	5.972372E-5	3.8386296E-4	3.7414821E-7	-0.0023147194	4.0047534E-4	-1.4E-45	-1.431458E-14	-5.5051012E-11	-5.395099E-4	0.011396597	-0.02823568	8.5379725E-4	0.0017467613	-4.2E-45	0.0	-0.0014025724	-2.1787997E-5	7.500745E-7	7.182852E-5	0.0	2.901333E-13	-9.8419787E-29	-0.019924216	-4.3826276E-5	3.343113E-6	0.0072165416	0.0	-0.0025916279	2.6895787E-20	4.387229E-16	-0.03163416	0.0037290116	-3.9533683E-4	0.0042605	2.2052308E-8	0.007904212	-2.199208E-21	-9.259023E-37	1.0231482E-11	0.007122436	-0.0015234215	-9.217699E-39	8.4E-45	0.0051934	3.6749387E-10	0.0	1.7090936E-4	-0.004484975	-0.010779211	-7.309427E-11	0.0010868264	-7.980028E-4	2.8E-45	-2.1186268E-11	8.6399453E-4	2.1034774E-15	1.0057365E-4	-1.779148E-9	8.126243E-6	-0.018275248	-1.8002274E-23	-9.466174E-11	2.8E-45	-4.056841E-8	7.327205E-4	4.2E-45	1.210578E-9	-2.4381756E-31	-4.5558884E-10	5.6E-45	1.929584E-7	-0.003307774	-8.3232776E-4	0.014328366	3.052472E-5	6.367972E-7	0.021624899	-4.5041534E-22	-0.025550252	2.6989252E-10	-9.7576703E-4	-4.2E-45	-2.374441E-8	-1.2300041E-4	-8.8E-44	0.0	0.006825366	1.1283516E-20	-1.3615911E-4	0.0	7.0603465E-4	-7.064013E-6	-0.01729678	0.010033548	-2.575871E-6	-4.2E-45	-0.019184627	0.0074759223	0.0095607955	4.0566403E-13	0.029805696	-3.562478E-7	-4.2E-45	-0.0018291622	0.013850342	-1.35898235E-8	-9.380858E-13	5.267447E-12	2.5639514E-29	-1.3230367E-4	0.0020780496	0.005153888	-0.016156573	-0.02617442	-1.2309971E-7	3.7623606E-6	0.0	-7.490498E-4	0.017402848	-0.012068392	-3.0086102E-4	0.0058865603	-0.03302386	4.774668E-4	1.0583725E-4	-1.394846E-5	-8.2677195E-4	0.028307931	7.321866E-4	1.3571102E-4	0.01107799	-0.0017054741	3.580831E-18	2.4014282E-15	0.0
0.0033411602	1.00903213E-19	-3.6494145E-13	-8.8844115E-17	-4.6339062E-14	-4.888384E-6	2.1995695E-17	2.1978815E-36	0.0	6.3962086E-11	-1.076197E-7	-4.2E-45	0.030704208	0.0	-0.0043552932	0.004218383	0.029290088	1.395642E-4	2.9170573E-5	1.622593E-11	-1.9764016E-8	1.2235812E-6	0.0015480382	-0.023916932	-0.0038575947	0.024953028	-0.0015877326	-6.739152E-26	-0.032754615	0.023736402	-9.338713E-20	2.4923477E-21	0.0	4.5453046E-21	1.6739196E-15	-0.016854046	-0.012419163	0.0019547502	0.0038575218	0.009120101	-0.02207902	8.8181417E-4	1.09928264E-11	-4.1294162E-4	1.6052638E-5	4.451786E-12	-4.2E-45	1.3401066E-6	9.9594814E-20	-3.7292284E-5	-5.0020035E-32	3.3931067E-6	3.212542E-8	-1.2754563E-7	-2.8364823E-4	-5.868819E-4	6.764664E-26	0.00412301	-0.01572286	2.0912712E-4	-2.0217345E-5	0.005487443	-0.031224078	0.0032608358	0.008216409	-2.2674978E-7	-0.030546987	-1.7314957E-12	1.4128524E-5	2.7360438E-9	9.433561E-4	0.006272834	-6.634921E-6	-1.2293206E-34	2.1711573E-19	0.022747202	-0.0015345725	0.011732015	1.4E-45	4.838205E-6	-6.3538463E-9	-1.4E-45	0.004129474	-0.021513525	-0.019357871	3.4155612E-12	5.6E-45	-0.002262295	7.993602E-5	-0.027968612	0.0	-0.002791745	2.8E-45	-1.3777742E-35	1.6744252E-17	6.895115E-4	2.0578631E-7	0.007075647	0.02606392	-1.1409981E-16	-9.669725E-5	2.775028E-22	-0.02025997	0.0034946394	5.8499086E-6	-0.019239312	-0.0092137465	-1.6956363E-10	-0.0050626714	0.005888268	-5.6E-45	1.4E-45	8.242931E-6	-5.0587787E-6	0.015617097	0.0036156324	-2.8E-45	-0.003537111	0.002453547	7.0E-45	0.0028316139	-2.8E-45	0.025139255	-0.006937642	7.197076E-5	-3.7060402E-13	-0.0013040579	-0.0180544	-0.014853411	-6.906544E-4	3.0228058E-9	-3.3336122E-21	0.008186459	-4.71326E-6	-0.016320962	-4.2E-45	-0.012732046	-0.004972422	0.0022980692	-3.5146435E-4	-0.016897261	-3.065627E-6	-0.02887037	-2.7536362E-7	-4.2E-45	0.008057459	-3.6649663E-17	-1.4449709E-8	-0.0021250288	5.6E-45	2.3238241E-11	0.018322073	-0.0016649847	0.008152422	4.0915475E-4	5.6E-45	4.3082456E-4	-1.8872579E-23	2.0174528E-31	0.010842379	-0.015184514	3.4103844E-16	-0.0013977244	-0.029270606	0.008727926	0.03125912	-0.022031013	0.0038816328	-0.0075181574	-3.5E-41	-3.1942478E-4	6.2251557E-4	0.025146322	-4.6616225E-4	3.482766E-37	-2.0642545E-16	3.2161476E-9	-0.004199525	-1.2974712E-4	0.003633138	-1.1252644E-8	2.2374516E-5	0.0056315884	-5.205793E-4	-2.569527E-31	6.5493815E-9	8.87774E-35	0.01629199	-0.024275579	-1.4E-45	0.0016238667	0.0011522126	-5.305873E-5	-5.4780574E-4	0.0070909862	-2.8065177E-9	-3.1803396E-5	0.0	-0.0071068103	-0.024513148
0.019912302	1.19456445E-5	-0.006520533	1.0074889E-4	-0.026926603	-2.8E-45	0.013201787	5.6E-45	4.4964615E-4	-0.016504213	7.347462E-4	4.7764983E-11	4.0679146E-16	0.017528849	4.068146E-7	-1.5566096E-6	1.6330398E-5	2.4787182E-12	-2.8E-45	0.030084033	4.6968626E-7	0.011250636	6.966605E-10	-0.018701993	9.572785E-10	-0.018069005	-0.022779867	-0.030098269	-0.022548707	1.1394237E-6	6.8159467E-10	0.020329667	-1.4278286E-22	0.022734394	5.1125254E-10	-1.4E-45	2.2796312E-18	2.0542414E-9	-2.4891524E-5	1.3308853E-19	0.004079568	0.0046602036	-0.031104561	1.3138781E-8	-0.014514999	-6.998003E-21	-0.0021322037	-4.9987978E-29	-0.0039157094	-4.2534834E-6	6.086959E-5	0.019960586	0.0028763253	5.5392636E-26	-2.6313273E-5	-0.016037112	-3.184661E-4	5.6E-45	1.250354E-7	0.024700368	7.1327726E-8	-2.8E-45	8.1033025E-10	1.502116E-8	2.8E-45	-0.0024740873	-5.456984E-7	-7.9889636E-4	0.020412076	0.007636428	6.256203E-4	-0.005394641	0.0011946782	3.746654E-9	-1.4E-45	-4.0188537E-9	3.0897123E-14	-0.0069471006	1.4E-45	-2.89853E-17	-1.9929199E-5	0.009344083	-2.3796932E-7	-2.4500089E-8	-4.2E-45	6.1489776E-23	-1.1859083E-10	-0.0026933844	-0.002800238	-0.025868557	-0.0043258313	1.1769482E-4	-2.8E-45	7.0457165E-5	0.016231172	-0.007339934	-0.023083681	-0.016673971	-0.01636517	1.4637431E-20	1.7192598E-16	6.5626856E-4	-1.4E-45	0.0055706655	2.3377218E-6	-0.0034826973	0.0	1.1507308E-5	8.201945E-4	-0.029230002	-1.4E-45	-1.2499654E-4	5.4528705E-6	1.6314494E-5	-2.1350255E-18	2.0072483E-5	0.019885682	-0.007986135	-0.0012511547	0.009665512	8.7789354E-5	-2.8E-45	2.8279354E-4	-2.590606E-11	-8.100772E-10	-1.15270815E-8	-0.018166332	1.2281267E-6	2.8E-45	-4.8125748E-4	-0.0023244338	0.022192525	-1.5509327E-23	-2.0246166E-8	-0.005565317	0.0056073293	-0.008973759	-4.1468473E-5	-4.5822054E-4	-0.027168656	0.0	-2.8E-45	3.5430833E-7	-0.003908117	-0.02989707	-0.0026849094	-0.008423845	0.0010414285	-8.650136E-39	0.0029625779	3.841352E-5	0.0023605581	-4.3531725E-21	0.0014119395	0.017136205	-5.3891025E-8	-3.967983E-16	0.0055344515	6.4720136E-15	0.0026697635	1.942205E-15	0.0044545056	1.5101663E-10	0.032193307	0.01908118	1.9154342E-21	-0.002808489	-0.008779808	-0.0018925748	0.022998424	3.6761598E-8	-3.32151E-4	1.4E-45	-5.9742383E-10	-0.005965193	-0.0020159383	1.1681704E-19	-2.3427866E-12	-0.028734813	0.021265332	-5.1154866E-12	4.2E-45	0.010026534	-0.0035468123	-0.016520202	5.1967995E-15	0.025986426	2.8E-45	0.025275756	-0.026917007	1.9491921E-7	1.2146763E-11	-0.026807442	-0.0015685947	4.82284E-10	0.0037578507	0.0027075894	-4.2E-45	-6.2622516E-32	1.1328318E-12
1.00352425E-13	0.020750675	-1.0215906E-5	-8.301225E-8	1.4E-45	0.024474753	0.025708618	-1.4890081E-24	7.0820906E-4	1.8664596E-14	-9.751614E-18	-0.0071677063	6.081783E-13	-0.018625472	-1.3109966E-10	-1.4E-45	0.008107356	5.095089E-8	0.007750322	7.370822E-4	4.0023865E-6	-0.029033983	-1.7676284E-8	0.019818567	-1.08680945E-17	1.00908366E-7	4.7961308E-4	-0.01439897	-0.010433545	-7.385838E-9	1.6388789E-6	1.14668455E-5	-5.6E-45	2.816308E-23	3.3743828E-4	0.0	-0.0023024264	-2.7681052E-32	0.0011941455	0.009364238	0.016981825	2.8E-45	2.4303503E-8	0.002124112	-8.619746E-15	-0.0041968753	-1.791969E-11	7.531693E-11	1.0361007E-28	0.0044363067	-1.3032358E-27	5.858724E-39	-1.3521398E-17	-9.461851E-14	-0.0025254365	0.005958527	2.44112E-40	0.020289617	1.6072668E-6	-0.0068338728	6.636656E-4	0.03009957	3.144673E-6	-2.834484E-4	2.57551E-4	3.8436454E-8	4.3762844E-11	2.6142288E-5	-1.0908724E-9	-3.5010156E-4	4.2904256E-4	-8.0170694E-20	-6.9315155E-4	4.86E-42	-0.026515499	-0.002719834	-5.2330665E-7	4.8920426E-30	1.6943791E-13	0.011182434	-0.021893475	0.0050305976	0.02452038	-1.1522552E-14	-2.8E-45	-4.6241978E-31	3.5852776E-7	-0.0060549793	0.016417077	-0.013472408	-9.881117E-6	0.0073978035	-1.01772246E-4	2.75143E-8	2.1781E-19	5.6E-45	1.2877514E-8	-6.155652E-4	-0.027510438	-2.8E-45	-0.0032041103	8.623122E-7	0.018812807	0.007663431	-0.005610323	7.601466E-8	-0.013729831	0.0	2.1839828E-9	-1.3274824E-10	6.581667E-5	0.028030705	6.503364E-28	0.0	-0.001330188	0.011210588	-4.1846372E-4	0.005922568	1.5820119E-19	-2.570888E-4	-7.2862086E-8	-3.0386897E-7	2.6708066E-16	-2.598027E-4	-0.0014525035	-0.004573245	6.016245E-5	-7.0E-45	-5.112128E-5	-0.001971689	7.979183E-9	-0.010898934	2.0945736E-11	1.7159512E-4	4.6619237E-14	-7.589386E-10	6.5520026E-37	-0.0013583155	-0.004309377	3.1586245E-4	0.012243556	7.0E-44	-9.602204E-5	-4.205471E-16	2.039096E-9	0.0	2.3763172E-5	3.3058782E-7	0.0010114333	5.784087E-5	2.8E-45	-0.0011065992	0.00732394	0.014143045	-1.0138227E-6	0.024398327	5.8548653E-37	0.0	0.007476702	0.010813182	-0.02508003	1.1654695E-18	-2.8E-45	5.701277E-4	-0.016706374	-2.8E-45	0.0023581532	-9.99865E-15	0.01817254	-0.027568249	2.7978732E-23	1.2671032E-37	-0.0023193106	-0.0046828915	9.769998E-7	0.010419149	-6.680578E-4	-0.0030162167	-2.735169E-7	0.0	-5.6E-45	-0.0062661506	1.5741875E-25	-0.018617148	-0.005733661	-3.9797287E-6	-4.4394508E-7	2.5482338E-12	-0.021757783	-0.029803677	0.0011420877	-0.0036361564	-1.8427207E-16	7.608608E-5	0.002912943	0.004877056	0.002494438	-1.4316116E-4	0.013353305	0.0016490968
7.898212E-4	0.0024675357	1.0090359E-4	-8.548631E-15	-6.2659266E-4	0.0	5.6E-45	-0.018891513	-0.009894096	-6.616899E-4	0.0036565138	-0.0072606187	-0.007920977	8.0966397E-13	-2.5747838E-11	1.3989117E-5	8.590466E-9	5.8972314E-26	6.675205E-8	-3.0407442E-8	-1.3581447E-5	-4.2E-45	5.6E-45	0.007928455	-7.0E-45	0.019234851	7.93327E-7	0.0060675265	0.020821359	8.1994636E-5	1.4E-45	0.00182099	9.842892E-4	-2.8E-45	-1.6209182E-5	-1.2862968E-23	2.8172888E-13	3.8709097E-12	0.0032119784	7.762442E-4	2.8E-45	-3.3784246E-19	-0.003159965	-0.0017617792	0.030058654	0.0053292336	8.321252E-9	-0.026132043	-4.1893156E-9	0.0074949474	4.451373E-21	-0.003086421	-8.1E-44	-1.6822776E-5	-2.219167E-8	-1.1610339E-7	-0.02049732	-1.0184368E-17	0.023472223	-0.026855784	4.463735E-7	-0.024693385	1.4729369E-6	-4.9708935E-9	5.1838964E-7	-3.497258E-8	-7.3631475E-4	-0.004206717	0.0010088878	1.7526282E-12	0.0013387925	0.0041818414	-6.295774E-32	6.2276793E-15	7.1499126E-6	-2.8743389E-6	6.2794104E-4	-1.6915995E-4	-1.6113215E-4	-0.0052606794	-2.7134203E-10	-0.020002725	-4.1361138E-5	-0.008543789	0.022947557	2.376881E-25	-3.396828E-25	-1.1840397E-36	-1.0905229E-26	-0.0013988416	0.023410961	-0.01217682	0.0139526855	6.490524E-32	-1.1014382E-29	-0.016724933	-5.6E-45	5.1068823E-32	-0.0012302033	-0.008564512	-0.013902298	0.0055440385	3.8633595E-4	5.6E-45	6.498448E-6	2.0690748E-10	1.02078564E-4	-0.0056264596	7.1922153E-9	-0.0019850754	-1.6868388E-6	0.008377065	-7.309718E-18	0.0077972747	-1.7799671E-4	-6.8455434E-4	-3.2551864E-11	5.887386E-4	0.0	-0.01683326	-1.5539062E-8	-1.042881E-8	0.008769558	-9.352033E-27	1.2085637E-6	-0.0027518389	-0.027822418	1.4E-45	7.596334E-5	0.023038464	-0.010381649	-0.0012186758	0.0	-1.3183E-41	-1.2837208E-4	-6.575949E-4	0.0016334956	0.009609989	9.814478E-14	-1.5983922E-12	0.0	1.4E-45	-7.0E-45	-6.463997E-5	0.011317742	-0.0037294524	0.021668943	0.026654206	5.623523E-6	-4.106109E-12	-2.5893496E-6	1.1487463E-7	-9.998848E-4	9.206039E-13	-1.4723764E-5	-5.8308377E-34	4.067262E-9	-1.6083762E-6	-1.455837E-14	-3.165384E-4	5.6E-45	0.024270639	-6.7241054E-15	9.0855945E-10	0.020962575	3.019187E-36	-0.031328045	-6.407213E-12	0.0125246	0.0094506275	-7.169459E-5	0.0012461115	0.032323547	0.00192962	-0.027966324	-0.0012784442	0.0072699655	-0.030893186	-0.01827123	-6.201553E-10	-0.009934875	0.014018218	-3.0103508E-6	0.012834286	-0.010949094	-0.0059651844	-0.029483823	-2.9504875E-8	-1.0423484E-11	-8.082862E-7	1.4868561E-9	-0.03190568	0.0046135704	-4.2E-45	0.0	-6.781312E-6	-0.013591879	-0.02182915	-8.628494E-6	0.02098309
0.015180497	-0.013279374	3.0717276E-10	1.7105003E-6	-2.4558846E-23	-0.019330652	-0.0034840198	3.7179734E-25	-1.4E-45	-1.07769985E-4	-0.0018385657	-5.588778E-7	0.009345259	0.01072615	-1.27424435E-14	-4.5567796E-18	0.031208366	-0.009439057	-3.3951746E-4	-0.018843528	-2.8E-45	-4.0829356E-5	-9.0072106E-4	-3.0129637E-5	-0.009551279	-7.199776E-4	-7.607081E-13	-0.0069947713	0.0	-0.018397834	0.0	-0.013981342	-2.24E-44	7.0E-45	0.00933771	0.012759023	-0.002428857	0.030282576	-4.0361607E-12	5.6E-45	-2.8E-45	7.0E-45	0.012569046	-0.0010388762	8.045972E-6	-2.4588815E-9	0.0	-2.24E-44	-0.023727033	0.030927543	4.5586727E-4	0.0044167177	-2.9105436E-12	0.029732235	-9.7608934E-15	6.084883E-4	-4.0586807E-14	-8.13E-43	7.129018E-4	1.5090464E-5	-5.6E-45	-0.0010545785	0.0071527045	-5.6E-45	-0.0016588517	-5.004464E-6	-0.0065092486	-1.8978945E-13	0.017187912	0.004360329	1.581603E-32	0.008718662	-4.524154E-6	-6.499552E-13	0.0053581055	-3.2596184E-10	-0.019062808	6.587951E-5	0.006330692	-4.892737E-6	9.939829E-12	-0.009235106	-2.2902963E-5	0.0	-5.1781494E-4	1.5648102E-7	-2.8065938E-4	-0.008045659	-0.016216934	0.011176059	0.007182802	3.4028533E-5	-0.00134252	5.5680583E-15	0.0	1.3577315E-4	-0.0024045769	3.9551576E-31	0.009637065	5.8389082E-6	3.8631193E-19	5.2701477E-10	-0.028479336	0.005979683	1.4453831E-12	6.2376E-6	0.006417507	0.0031606199	-0.016919179	0.024677202	3.522555E-4	-5.6E-45	1.5783547E-31	0.0	2.6148095E-4	7.7208E-10	2.3757413E-27	-2.6488858E-10	-2.8729697E-15	9.958833E-26	1.586702E-8	5.6E-45	0.0012030517	-1.6925195E-20	1.1716548E-4	-1.8431486E-4	-0.030864643	1.4E-45	3.3110527E-7	-0.0071281004	0.02075122	6.907737E-5	1.3488255E-30	-2.6729338E-6	5.3569453E-18	-1.2017379E-38	-5.6E-45	0.003687107	0.0	-0.022739083	-3.7796917E-14	-0.0024722083	1.0677942E-11	-1.8324313E-4	0.019326288	0.010567039	-0.024488013	-0.0015244589	-0.0032721555	-0.0031042458	0.015037177	0.029306218	-3.3467704E-11	-1.8197815E-4	-4.2E-45	-3.129379E-14	0.013322112	-4.2643578E-4	1.2064587E-6	4.686317E-27	1.3042562E-27	8.00874E-33	-3.3403252E-4	0.020937659	-0.0010548583	-0.028343653	0.014403335	-0.005010933	-0.018876001	3.7338355E-9	-8.895358E-5	4.713243E-5	-0.019205108	8.776709E-4	7.789588E-4	0.014760298	1.5954735E-29	-0.0021244818	0.005809301	0.023321563	4.2892358E-4	-2.3894916E-6	-6.185417E-7	-7.5275426E-34	7.734938E-6	0.030039161	0.0032187614	-3.092327E-36	0.0	-0.030458763	-1.756204E-23	-0.0036415476	-1.14484996E-4	4.6476634E-10	4.3060989E-4	7.0E-45	0.0041543893	-5.6E-45	-0.0041804053	-2.8509753E-16
5.6E-45	0.0	3.1630998E-4	-0.0043697655	-0.0098322965	0.025048643	-6.368349E-13	0.008194234	0.0030069016	0.0075338166	1.9622163E-7	7.4643084E-14	-6.481827E-4	-0.004897392	0.0011569943	2.8E-45	2.3576342E-4	2.2197833E-4	-2.0025924E-4	-0.028035687	-3.1425833E-4	4.912015E-5	1.677392E-4	-0.003589708	-0.031797677	0.030785007	0.00665004	-1.9295642E-4	0.003916813	-8.9902675E-4	-2.293042E-11	4.8292658E-4	-2.047E-16	0.015142902	-2.9755053E-11	2.8E-45	0.004978803	-0.024891945	4.4679787E-4	-7.559971E-24	1.11926194E-4	-0.030325133	-1.1645299E-35	-1.3679695E-4	-0.012700767	0.0	2.5329532E-13	-7.5903395E-11	2.8E-45	-0.0016459347	2.6194552E-6	0.010687296	2.8931498E-4	-8.39187E-4	1.5143814E-7	7.159633E-5	0.0	4.25392E-9	5.229989E-5	8.4144254E-11	-9.158012E-5	-0.008891566	3.3732297E-6	0.0294361	0.0	-5.427108E-10	-0.0052063614	8.112636E-9	1.1535118E-5	-0.0021895224	0.009516259	0.006810658	1.5985368E-33	0.0	0.026562864	-0.004048021	-0.018214578	-1.2134961E-10	-0.006589422	4.874634E-13	-1.2192048E-7	-0.0013184051	0.0015466259	0.0048086373	2.247202E-7	0.002531332	0.0	-0.013244456	5.511247E-7	0.0011590334	-5.2553605E-26	-0.028119657	-0.0075762193	-7.6067226E-4	-2.8E-45	-0.0051741777	2.048589E-14	-1.0159511E-33	-4.2E-45	-0.001782926	-1.4E-45	-9.636678E-4	0.03061574	-0.015917791	0.005520628	-1.196366E-7	-7.006182E-4	-2.6099592E-6	-0.0255496	-9.46219E-6	2.8292812E-5	0.003890782	-0.012978941	-0.015157436	-5.9453095E-19	3.975823E-26	0.0	0.0042007426	1.1422679E-8	1.9660937E-16	-0.023888038	1.3343072E-5	-9.7550184E-4	-0.014575339	7.0E-45	6.379099E-4	-1.9839104E-24	3.693301E-4	6.449185E-7	0.0039454997	1.4E-45	1.0727713E-12	0.020695372	2.3363365E-26	0.0	0.025571674	2.5081175E-4	-1.2951886E-4	-0.026288953	-0.029522445	2.6836599E-8	-3.7711956E-8	1.6628315E-5	0.011074165	-3.7047003E-9	1.1335626E-4	0.0	7.3482725E-4	2.0246384E-6	0.0042076223	-0.014769678	-5.7906662E-5	1.7650164E-14	4.6113027E-7	0.017729336	2.9920062E-5	-2.2955042E-14	-0.02331371	-5.4721463E-27	-3.389842E-6	-2.8E-45	3.1925147E-8	-0.0041004773	3.9383632E-4	-0.009133482	-6.5124297E-4	7.652389E-5	0.013146016	-0.016216297	0.019058466	5.283007E-10	3.5282724E-29	-1.3165017E-6	-1.13522E-40	0.0	-0.029132934	-4.1350463E-4	7.4875285E-4	-9.9676035E-5	-2.8E-45	-0.032818083	-4.0522824E-12	0.017903404	-1.59959E-4	0.0054062996	1.1251992E-8	3.4272547E-5	0.0038674292	1.8244462E-8	2.8403214E-8	-3.89433E-40	5.6E-45	2.811999E-25	-0.030858	-5.895422E-5	-1.1913137E-6	-8.6296447E-16	0.010525104	2.8E-45	-0.0013431637
0.0	0.031054452	2.3011658E-4	-1.8283345E-6	-4.9635123E-6	0.0015468157	-1.1453573E-30	3.244961E-34	-3.7173214E-4	-3.32566E-22	0.002417309	0.01729446	-0.02594298	4.309037E-4	-1.4643517E-4	-0.0050869873	1.4E-45	-0.006557669	-0.004165403	0.020295436	6.910211E-5	-5.6E-45	0.0150282765	0.0023794314	-0.013475531	0.012226519	0.0	-0.0032730275	-1.1466079E-5	1.0943595E-8	-2.6727945E-4	-1.4126344E-27	-2.8E-45	-1.3677316E-4	1.5679306E-34	-2.1834665E-5	4.923687E-4	-0.029617527	-3.891635E-4	-3.0098505E-8	-0.003819305	0.025624726	-1.4E-45	-0.016319323	0.016198568	8.055991E-4	-0.023028584	0.010640386	-0.017243855	5.730002E-4	0.030661708	8.135715E-39	0.0	0.023100136	-0.007989385	-4.3620854E-9	0.024642898	3.3175912E-8	2.8E-45	0.032244965	-0.026745224	-8.4858165E-29	-9.346715E-10	-9.205748E-5	4.8076417E-5	-4.059188E-4	-0.015129125	6.923953E-5	-0.0021165013	9.65392E-9	-0.005655724	-4.4258867E-20	-0.0011094371	-4.2E-45	0.0	8.6655177E-4	0.008179831	-1.539295E-4	-5.448918E-37	-1.4963362E-4	0.0	1.4837938E-17	-5.1111435E-14	-3.7675E-12	4.940477E-4	-1.4E-45	-0.007590223	2.0466374E-12	-0.010065163	-1.1571076E-10	0.008293803	-0.01448089	0.0037956056	0.017718334	-6.8564043E-7	-5.4399743E-26	0.0	-0.0021287156	0.0029653513	0.0	-1.25094925E-14	0.012905915	3.72498E-15	3.6741846E-31	-1.4E-45	0.010814635	2.745445E-10	-0.017453162	0.0024360616	0.0016988865	-0.009320487	-3.1023353E-4	-0.0010367143	-3.7142073E-4	-0.016370803	-0.030878453	-0.009945801	0.004189725	-9.060122E-8	-8.656366E-8	-0.004420424	-0.018762648	7.7298966E-11	-2.8E-45	-0.007679483	-3.876853E-37	0.0021503964	0.0016561033	0.008252323	0.0	2.3435865E-7	1.1102684E-15	1.4175067E-10	0.006270079	-2.656996E-7	-1.4364604E-15	5.4686115E-19	5.8932477E-9	0.01686864	0.027252523	0.015095305	-1.6480803E-20	2.048349E-5	0.013481998	0.0015220923	-0.002303025	0.03160515	-1.4490855E-5	0.022260737	-1.5706787E-7	-9.5136437E-7	-0.015040187	-0.011767057	-8.1206707E-4	2.1308429E-4	-6.016296E-10	8.442756E-9	0.00483662	0.0	-1.4973268E-5	4.774817E-5	-7.6260634E-13	0.0019424283	-0.0013906743	2.2582114E-9	4.890069E-4	-6.8224295E-16	4.35593E-8	-5.7653413E-33	-1.4E-45	-6.1413342E-33	0.0017805551	-4.8143958E-4	-0.024621977	-2.753976E-4	4.9143855E-5	2.8396438E-16	8.562603E-7	-1.3307487E-13	-0.0066155433	-2.5959017E-20	0.0011508004	1.02329945E-22	2.8176018E-8	0.024151172	0.018437957	2.866392E-5	-0.027004687	-0.0052462053	2.309894E-14	2.8613414E-8	2.2929837E-11	-1.2481981E-17	-0.010979636	0.0038821823	7.029777E-15	0.03259371	-4.3049853E-4	-2.1041202E-4	-0.00214583
0.028258335	0.015116575	-0.014602656	-3.845579E-8	0.030410651	0.0022208602	-9.0864665E-7	7.633734E-6	-4.725726E-6	0.0	-3.0978055E-18	-2.2448863E-5	-4.390287E-6	0.0	-0.008771763	9.983368E-4	1.5633172E-12	5.9392135E-24	-3.817761E-9	-1.4E-45	-7.0E-45	8.187425E-4	-5.005103E-4	-5.950428E-5	2.8048945E-16	0.001215885	5.210248E-4	0.022229794	0.0050112936	-5.3619837E-25	-7.0E-45	0.0059098713	-1.2349894E-5	-1.18303956E-29	-1.5006308E-38	-7.808432E-7	0.019455316	-5.6E-45	-4.8513946E-5	-7.691447E-8	0.015832195	-0.0027865	3.9409365E-6	-1.5743862E-7	-4.1591545E-4	3.488E-42	0.030879283	-9.312082E-6	-8.198385E-4	-0.032996893	-0.015510341	-0.01001283	3.485657E-27	5.6E-45	3.3398976E-17	0.002403228	0.0	-1.144071E-14	0.0044300794	-5.56381E-5	-4.2E-45	-0.017288573	-8.606387E-15	-1.4435708E-28	-2.11629E-6	-6.6882762E-6	0.0	-1.2923129E-17	0.028387358	-1.2684713E-28	-1.2271488E-13	9.781579E-4	0.007936428	6.3511044E-25	0.019248735	5.5911887E-4	-0.030716775	-0.01173213	0.0011429659	0.006434764	5.6E-45	8.472117E-5	-0.02784489	1.3500377E-6	0.028778346	-0.019401308	-1.9884507E-11	1.7154424E-17	-2.8E-45	-2.7038772E-23	5.003695E-4	0.023998993	-0.0049662944	-0.023888988	0.0016667638	-1.2346943E-12	0.0	-3.0213542E-4	-0.0015920709	4.512375E-5	-0.0012802238	-0.027539523	-0.002288639	-1.0992609E-9	0.0	-0.031565353	-0.0030122534	0.008944675	0.021596	-0.028725753	-8.0783027E-22	4.2E-45	7.664412E-6	1.4971777E-4	0.0016881682	0.01833404	2.2120545E-4	0.019277986	7.292494E-11	2.4559846E-5	-0.009593152	8.991653E-6	2.218E-42	0.0021514422	7.45591E-5	-7.4136024E-6	4.109825E-15	9.5047716E-7	-0.0054692472	-3.7629276E-14	0.0012960241	0.028841175	0.0065209195	-0.007948985	-7.325437E-6	2.4222427E-14	-3.1661745E-8	6.094944E-4	7.302272E-11	-4.1623847E-5	8.364723E-34	-4.2E-45	-4.2030567E-22	-0.01950255	-1.5880665E-12	0.0	-1.4E-45	-0.0014532701	-0.019147165	-0.011356083	-1.0053605E-9	1.8577799E-5	-7.0573426E-26	-3.3280733E-6	7.0E-45	-9.924433E-5	-0.0011484713	0.0011042748	0.021989794	1.4E-45	-1.4E-45	-1.4428791E-4	0.0	-2.2592478E-5	-9.454849E-18	-4.2E-45	0.0020666532	-6.893597E-8	-3.9606134E-6	-0.002321357	0.010009503	2.7277568E-7	8.2602225E-10	0.023492187	-1.9286133E-4	1.1871533E-20	-1.1763583E-6	-3.5648352E-11	-3.754982E-27	-2.35645E-16	0.02108504	6.883615E-5	0.015181505	-3.481376E-16	-4.4593753E-7	0.012887356	6.460525E-7	-0.00784129	2.1686308E-5	0.0051674847	3.7222554E-21	2.7782593E-7	0.02527858	4.503996E-4	1.7921926E-4	0.0069545447	-2.139111E-9	8.471864E-12	-0.0030565716	-0.0063812225
2.5120606E-5	9.2549126E-5	0.0036092096	-1.4E-45	0.015872832	-4.2551566E-27	0.010495194	1.6410121E-16	0.0	1.371441E-5	1.6265535E-37	-5.1263795E-4	-2.604991E-11	1.4E-45	4.2490126E-4	2.8610513E-11	-5.551855E-21	0.0021711984	6.282466E-17	0.02455293	0.0022754506	1.8910546E-8	5.3600664E-4	-6.94E-43	1.8317596E-13	0.0044791833	0.002026955	-5.6E-45	1.42E-43	7.88793E-8	0.006411821	1.4549253E-5	-1.3898867E-24	1.0730838E-6	-7.4245374E-30	-3.4949697E-34	-2.5803608E-20	-4.6852706E-16	3.6419297E-5	-1.1599951E-23	2.4395813E-11	0.0	0.0	7.0E-45	-2.8E-45	0.012636913	9.819788E-19	-4.020395E-5	-1.3684904E-18	-1.1790975E-6	4.1512576E-5	8.468119E-7	2.885411E-21	0.010543627	0.0099009955	0.00527428	0.0061186077	2.8E-45	6.9891234E-7	1.4642281E-5	-1.1726843E-5	-0.020455956	-0.003115601	-3.2100722E-4	-0.014687361	-0.010607777	-2.3517876E-8	4.8940798E-5	-0.0018460953	0.02442874	6.1913584E-20	-0.029804708	-5.6E-45	-0.005600762	-0.016448107	-0.012910162	-0.004057585	8.125357E-13	1.8954767E-6	0.006755971	-5.994979E-6	-0.01718092	0.0070021767	2.4308286E-4	-7.5671275E-4	-0.027114302	6.0477995E-31	1.1707423E-4	0.005454367	-5.116612E-5	7.3561096E-5	4.2E-45	1.8113285E-4	-0.0018650622	4.5838375E-10	-0.0033984813	-3.5590154E-5	1.7324132E-19	0.0060707144	-5.6E-45	-1.1573287E-24	-0.0030204442	0.0	9.730377E-12	-8.1130393E-22	-2.496E-42	4.4818967E-6	1.9279988E-13	0.029864741	-2.4546206E-4	3.4404657E-4	-4.4912244E-7	-1.8523515E-5	-1.207216E-7	-1.375114E-7	3.7209804E-5	-9.5376393E-20	5.6E-45	-1.6199276E-6	-1.6859913E-5	2.560486E-4	0.002271043	-0.026490213	0.016691817	1.226754E-21	-0.0022195894	0.031862915	1.1512037E-13	0.018953394	9.210967E-10	-0.010021256	5.800813E-4	-0.026802171	0.0064322352	-1.8990759E-4	-3.1741834E-9	-7.9337354E-22	5.6E-45	-5.0304E-9	-4.3416985E-5	9.4265065E-12	2.822006E-17	-1.1866E-41	0.0013806872	3.256421E-4	0.0	9.843291E-7	1.0236527E-6	-1.1751195E-34	3.479917E-18	8.6085545E-4	0.0	-3.0186238E-34	-0.021687124	-3.1E-44	-3.8965314E-7	7.261186E-4	-3.0543628E-8	0.012008006	2.0968639E-4	-0.004674769	3.5197123E-10	-0.0018633032	-0.004827745	0.0	0.008841329	2.8E-45	-1.9038394E-8	6.58066E-12	-1.84674E-7	-3.936E-42	-0.0032745178	6.280071E-8	-3.4073542E-4	-0.0030234188	-1.4E-45	7.5533016E-8	0.01083235	3.3507058E-5	-2.1153934E-5	4.4104418E-5	-0.014335659	-0.001322016	0.01896063	0.005222937	0.006029869	0.0	8.974842E-35	0.01227324	1.5374631E-4	0.013665159	1.6567198E-7	0.001570259	-1.0211489E-10	-9.922468E-5	0.0034631286	-0.017192103	1.4E-45	7.387877E-13	-0.002476019
0.0025516066	6.994387E-8	0.0	-0.0012802292	4.2E-45	2.0958276E-13	0.008645692	-0.0012686836	-0.029356578	8.2113595E-12	-3.3306977E-5	-7.485084E-16	0.0015505608	0.021203397	-0.019869406	-1.5989148E-5	0.030581623	-3.6182275E-12	3.377062E-10	-0.003258991	0.0024681608	1.01816935E-14	-2.8E-45	3.106733E-5	4.168317E-27	0.0013426561	-7.0E-45	-1.1342803E-9	0.00466271	9.5085705E-36	6.424106E-8	-6.4925395E-4	0.0021513193	0.015690248	-7.558868E-4	-1.0213558E-14	1.0842756E-4	0.0022330263	0.0029663185	-8.5941755E-4	-0.0014654817	3.1E-44	-3.8633827E-4	0.008497555	3.181532E-4	0.0029778788	7.0E-45	-5.3012636E-11	-0.0077885278	-1.4839675E-5	-0.0015782247	-0.024210146	0.009820638	-0.015443502	3.3538056E-15	-2.3139933E-33	0.024868695	0.0027073848	0.027783338	7.0E-45	3.7635335E-5	-5.6E-45	0.030718075	1.9127183E-5	-1.7320512E-4	-5.6E-45	0.016952315	0.0	-0.009890123	-7.990319E-18	-5.425353E-6	-0.0043011038	-2.6669055E-5	-4.0363224E-10	4.7206406E-5	3.5115183E-4	2.4521674E-4	-2.4229838E-4	0.0	2.057951E-37	-1.6621227E-4	-0.011083533	8.7202134E-11	-0.008232051	1.4E-45	4.2E-45	-0.030162795	-0.024457878	8.763213E-14	7.21599E-7	0.0	2.8E-45	0.0096078385	0.0066480436	0.026017744	0.0021601948	0.0	-1.9971474E-11	3.1918277E-9	-0.0071341083	4.751933E-5	2.7920355E-4	-7.237E-12	1.6854081E-34	-0.014015276	-2.1237608E-4	0.0012240603	-1.0385315E-5	1.3920808E-13	0.0031215162	0.020971768	4.3443208E-8	-7.234719E-6	0.0	-0.005581545	1.5606154E-5	-4.0406288E-4	0.0	1.5640724E-5	-0.0076452275	-2.273383E-11	-0.012616482	0.005877419	0.024381617	-1.7237706E-11	-3.8599384E-5	3.6685134E-12	4.5722147E-5	2.724594E-18	0.014451369	-4.3945186E-4	-0.014444991	-0.01671662	-4.569643E-4	2.5745941E-10	-0.014086246	0.016494107	5.856092E-14	1.9059172E-13	2.055211E-6	-8.00023E-8	-1.358191E-12	8.157978E-28	0.00588057	0.008231349	7.171326E-21	4.0392474E-18	-5.2399115E-16	0.0012522141	-0.016667144	7.425501E-17	-8.7863207E-4	0.0020617803	-0.0060773464	-0.015916191	-1.5749056E-7	2.8068703E-37	0.0112885395	5.9618936E-9	0.0	2.8E-45	0.0034050164	-0.021049002	4.2E-45	0.00941022	-5.918034E-7	-2.039971E-4	4.803814E-4	-8.778958E-13	4.8026586E-15	0.02169495	-5.456876E-4	3.9219235E-14	-0.028109293	0.0	-0.004716233	-5.5794945E-23	1.2631867E-26	-0.011955051	6.778374E-4	3.9029918E-17	3.3707914E-4	0.010825364	5.8042134E-30	0.017770853	4.2028174E-23	9.037023E-8	7.0E-45	-0.026309233	8.863047E-5	-1.5856739E-4	8.991056E-5	-9.587492E-8	0.023028238	-0.032666482	-4.8563412E-5	-0.0010946967	1.0878388E-9	1.9359468E-25	2.8E-45
-2.2543956E-25	0.0	0.0013137722	-2.3785965E-18	5.8427325E-8	-1.525936E-4	0.030602893	-5.046856E-7	7.07386E-12	0.007285826	-0.0018836658	-1.1065563E-24	-0.012514443	5.6E-45	0.024709566	0.0013498963	0.002865985	-6.486001E-11	2.8416708E-11	0.0242562	-3.7587396E-4	0.009333776	0.020605743	-2.4764635E-8	-0.021936407	0.0	2.0773089E-7	-5.170128E-4	1.0422348E-4	1.18052354E-4	-0.019838883	-0.0043600504	5.6685694E-4	4.2E-45	0.019275887	-3.032286E-20	0.014078329	0.0018674638	0.003971345	-0.0022542854	-5.6E-45	-0.007615107	7.843774E-10	-1.2528504E-5	-0.012226099	-0.018704288	-9.419552E-35	0.0028795686	-0.02799332	-3.846536E-11	-4.4709795E-5	3.4521E-6	1.8410611E-30	-3.1784347E-7	4.398313E-25	-2.8E-45	9.119592E-33	-0.001080942	-0.030667078	-4.3901469E-10	-0.020273603	-7.723657E-11	0.018559365	2.8434655E-9	3.9134807E-12	2.387648E-11	-0.01440718	4.984044E-6	-1.4E-45	-0.002994629	-0.018228106	0.002823288	-1.3027926E-5	-2.8E-45	2.1039667E-5	-0.011072865	-2.0621406E-22	4.2E-45	5.6E-45	6.903745E-5	-0.019531555	1.8502999E-19	0.0024904027	0.0	5.39312E-40	-6.3014195E-5	-2.6530877E-4	3.6726706E-20	-1.1902499E-8	-7.049403E-6	-0.027233586	0.007699436	-8.60878E-4	0.0044199103	-0.032778002	-3.2487483E-16	-2.00262E-18	-0.00868838	0.026939252	0.0	4.054995E-12	-2.5931696E-4	0.006970424	-0.00715347	0.0	0.0017715434	-0.02930162	-3.5477566E-5	-5.739826E-24	-7.0801816E-11	0.033023253	1.616118E-4	0.0058853053	-0.0018148671	-0.030753763	-1.454588E-5	-7.426502E-4	-3.1482327E-18	1.3899707E-4	-0.011954878	0.011630019	-0.0011045615	2.78164E-9	-0.0051662326	-0.029631205	0.0	0.006986495	1.11934605E-5	-7.503401E-5	1.2234312E-7	-0.027631134	-0.014778342	-0.010803558	-7.2847685E-4	6.662967E-4	5.055129E-4	1.0137631E-5	0.0	4.4825647E-6	-0.006219386	2.2282326E-5	0.008691047	0.010874968	0.0014673906	3.6590836E-6	0.0041751866	-4.5883854E-20	-1.4E-45	1.4E-45	0.0015086659	-0.003205774	-5.595104E-23	0.015614686	6.6855973E-6	-8.6753644E-5	0.0	3.1E-44	-8.601138E-4	5.0647692E-8	-1.4E-45	4.746239E-4	-0.010815622	1.4E-45	0.021544019	0.0	-1.2786208E-33	-7.2729614E-7	0.0	-7.3351036E-4	-0.005291947	-3.5511807E-6	-7.930032E-5	5.211109E-16	1.0987448E-5	1.0674629E-5	0.010981133	-7.104279E-5	0.017237674	-0.002103668	-1.4E-45	0.0	7.053087E-4	-0.0074547846	-0.032439478	0.002332616	1.9648249E-4	-0.014143949	6.810234E-6	0.025030535	-2.0776663E-4	-5.4343086E-4	-7.0670167E-6	0.0121449735	0.0	0.0	-0.005775744	0.031573154	0.023801897	0.003087483	-8.082377E-23
-2.8E-45	2.7253878E-11	0.032870878	-0.029722624	0.030416077	-0.0031281183	-2.1741518E-10	0.0023034194	0.028100511	-0.006279294	-9.212312E-7	0.011244678	-7.0161536E-7	-0.018002676	-0.0015603707	5.6E-45	4.3466523E-5	-0.0053209	-1.4195578E-10	8.5942E-6	8.298528E-14	1.1428904E-7	1.4E-45	-7.182042E-5	3.0593442E-22	-5.183678E-6	6.3471976E-5	0.0016591417	-0.0027739129	1.889287E-6	-1.4381885E-21	-5.6E-45	0.0014579385	-0.018717274	0.0051181046	0.0065468904	5.0797516E-6	9.243429E-5	-0.012899452	-1.5190989E-14	0.026194524	-5.255695E-4	0.0138515765	-5.882162E-4	8.852566E-13	1.5223362E-8	9.466744E-13	9.247078E-13	-0.002285512	0.018880429	0.014304099	0.010367283	0.0017045494	2.606E-42	-0.018434575	-2.3342788E-15	-1.3483657E-7	2.0717807E-5	-6.0171343E-4	-1.711121E-4	3.6146291E-6	0.0025450932	-1.10818696E-7	-1.2446177E-4	0.022830868	7.0E-45	0.0170182	-1.7049329E-22	2.2763827E-10	6.691085E-5	0.006772427	2.5574879E-11	-3.559492E-21	-2.2196542E-5	2.9510583E-4	3.9626015E-4	0.009587057	-5.6E-45	7.252995E-22	-0.0029947911	4.1494604E-20	-7.130922E-11	8.4700994E-4	0.017745728	0.030870168	-1.9055244E-7	0.003592911	0.015609071	1.9552461E-4	-0.010248574	0.016230915	-0.008758899	-1.5196649E-22	4.864397E-9	-2.926897E-4	-0.0206775	4.2E-45	-6.8939646E-4	2.7550493E-6	3.516603E-4	3.662705E-16	-1.4E-45	0.029383224	2.1914576E-22	0.0	0.013922204	2.8E-45	-0.028852051	-2.2514086E-4	1.9198003E-10	0.0075204945	0.008123472	0.016641324	-1.4320781E-9	-2.2878445E-4	-0.005749621	0.0129311625	0.02148245	0.0073035564	-1.2421638E-21	-4.800521E-10	-0.00987292	0.0	3.558624E-10	0.0016569431	-0.002751868	-2.9109728E-8	-0.0024874718	7.755619E-8	3.9666626E-4	0.003962784	-3.37996E-5	2.8E-45	0.01915263	2.2459395E-36	-0.0013229527	-0.004565893	6.184025E-13	-4.9395894E-4	-0.025196956	0.020693969	-1.14004965E-10	-0.025198068	1.4E-45	2.4932406E-10	0.01879494	4.2E-45	-5.6E-45	-2.367824E-19	6.6908286E-36	-0.0061568264	-5.6E-45	0.0	-1.7658486E-11	-0.001711901	-5.6E-45	-4.3558498E-4	0.003385977	4.1857632E-8	-0.007785059	4.601479E-4	1.4E-45	0.012465168	-1.4E-45	0.019671492	-6.10936E-13	-1.9059592E-38	6.4785463E-16	7.711728E-17	1.8561783E-4	-1.348654E-15	-6.5644203E-6	2.3276088E-31	-6.491848E-4	9.4871985E-4	0.0	1.6044478E-8	0.0055370587	0.01037938	-1.4E-45	0.0060343076	-1.2197629E-8	-2.2632334E-12	0.006569339	-1.247221E-6	8.876247E-21	3.1168629E-12	0.007880216	0.0	0.0180287	0.002921676	1.729978E-21	0.0012149925	-0.019687798	-0.018268876	-2.3944238E-4	-0.028379627	0.0	4.2405075E-21	-1.1412717E-34
6.9631723E-4	0.00834565	0.009118053	-1.3230604E-6	-2.8E-45	-0.021395547	-1.7508E-9	0.023709124	-4.980014E-10	1.3581147E-4	0.010999673	-0.017198946	-0.031949636	-7.234691E-4	0.017535897	4.2E-45	1.4036355E-4	6.335135E-8	4.344573E-5	-0.0016835242	9.241605E-7	0.010362117	-0.025901409	-0.027993105	0.013924015	-2.6522894E-20	-5.0525366E-28	-2.3754726E-6	-1.4E-45	0.02268709	0.01145685	-1.4268453E-6	0.013818785	-5.2742255E-31	-0.0029678412	-9.7292395E-5	4.272265E-4	0.014167728	-0.016945474	4.417647E-17	7.0E-45	-0.0013617945	1.4357654E-7	1.7308888E-12	-8.184326E-11	-0.0029349967	3.0150928E-5	-2.0391227E-13	-2.6488735E-4	0.008170797	-0.028230922	-4.115316E-8	0.023929115	-8.1190653E-4	-9.0748654E-5	-1.9020372E-38	0.03258874	2.453167E-28	-0.0066498443	-8.027281E-6	4.2E-45	-6.254083E-5	-1.2987037E-19	0.0024997233	-1.8848259E-38	2.737788E-6	-5.02006E-30	-3.0921758E-5	7.5315656E-6	1.4E-45	1.6943314E-4	3.7645196E-4	-7.511595E-29	0.021476492	-1.9528823E-6	-2.1589987E-5	-0.009864573	-0.013696788	0.022930644	1.5812451E-5	7.0E-45	-3.9244576E-11	3.376395E-36	0.0049052755	-0.0044677802	-0.006389666	0.0	0.008283114	-2.6895577E-5	-1.4E-45	-2.6320262E-9	4.2E-45	-1.4E-45	0.0025712685	-8.1701705E-4	-0.003675313	0.00431483	-5.567057E-4	2.8E-45	-5.067786E-30	5.6E-45	-4.5776287E-5	5.0585454E-6	1.0410697E-15	-3.8612437E-14	2.3197399E-5	-0.020817854	-6.880613E-23	0.0017430746	-5.6E-45	7.259818E-8	-5.670795E-4	0.0015687866	-0.015224133	-2.0603297E-4	-0.0095763495	0.0	1.5697811E-5	-0.012901677	-2.8E-45	4.266366E-24	-0.0010349704	0.024881849	0.012173743	-1.2454811E-17	-4.653738E-8	0.007209547	1.5669777E-4	0.0172471	6.9091817E-7	0.02016822	0.0	4.463061E-7	-0.011394035	0.009626228	-5.2207557E-5	-1.4652851E-12	-0.031192005	0.016783012	-2.985678E-8	-1.6884139E-4	-0.0062968084	1.4E-45	-8.259092E-10	2.2840188E-8	0.0	4.2E-45	-6.835512E-18	5.6E-45	-6.7588274E-4	2.3726466E-6	-2.0646622E-9	0.004962214	-0.0013859242	0.0073683793	-6.9503205E-24	5.3631965E-14	2.4833262E-4	-0.02169495	7.0E-45	-5.26572E-8	0.009313206	1.2773501E-12	-9.88822E-40	0.0281511	4.2E-45	4.234131E-13	8.2331302E-25	-0.002584784	-5.171538E-7	0.0	0.0018126438	8.7868444E-5	-1.884914E-9	-9.302991E-6	-7.3219455E-18	0.0	1.4E-45	-3.546796E-23	-0.023034507	-3.1858067E-6	2.8E-45	-0.012484524	0.01025162	-3.20055E-4	-4.2E-45	-2.4219184E-29	0.026356792	0.0	1.7885758E-4	0.0	4.711215E-19	-0.0021576441	7.659676E-7	-0.0030962517	-8.242432E-6	-0.021081455	-4.155471E-26	0.030083895	-5.3016427E-9
-5.5764994E-4	0.0	9.663398E-5	-7.784436E-5	-7.4736954E-7	2.5640516E-5	-0.023919944	-2.619114E-9	0.01549615	7.3027244E-24	1.5390018E-4	3.2235403E-5	4.105327E-8	-9.359992E-13	3.7641034E-29	0.008041859	-5.6072645E-6	-1.4E-45	-0.023517555	-4.055421E-8	-0.009624292	-0.017390208	0.0011688417	-8.680318E-19	-0.013320332	0.032557048	-1.1609984E-5	-4.0551898E-4	2.0512144E-4	7.1612527E-28	0.0021211097	8.7256936E-14	-0.017084844	4.2E-45	0.0	0.0	-0.022214485	2.6614717E-4	0.0061505474	-1.5270103E-7	0.014055423	-4.809207E-29	0.0026700327	-7.0E-45	-0.025945095	0.0	-9.00747E-35	-2.7787806E-28	9.115624E-33	4.621344E-5	-2.631902E-4	6.967735E-20	-0.027707247	-0.0016313769	-4.0616183E-10	0.012399207	-4.4337742E-8	-0.032263737	-0.010561525	-8.94261E-4	2.8E-45	2.7373758E-6	-2.8E-45	-0.0018625996	-1.8052921E-7	5.32533E-8	-4.5015085E-12	-0.0034340431	-0.015446186	2.8E-45	-0.0049207667	0.0	0.009893864	0.022378627	-1.4609809E-13	-0.0036607666	1.3271645E-19	5.2609066E-5	-7.288698E-4	-1.4307654E-4	1.86E-43	-7.0E-45	-1.4602168E-7	-2.8E-45	0.0	-4.8892258E-26	-5.6E-45	-0.011278006	-6.032495E-4	0.033041604	-1.3104269E-6	4.5838867E-11	0.0	1.4E-45	-1.4E-45	-1.5086291E-8	0.025510808	2.7967046E-4	-1.3634273E-33	-1.4040972E-18	0.003863732	0.005891031	1.8263127E-4	-2.2872826E-5	-2.8E-45	-9.979083E-5	-2.2953372E-30	-5.477134E-12	0.0	-3.6197E-41	-2.8E-45	1.8524077E-5	0.03131605	-5.2131568E-14	-4.6791225E-5	-1.7841196E-6	3.1E-44	1.4E-45	0.014697269	-8.1296685E-11	7.6589284E-5	-2.2006118E-4	-6.602093E-4	3.427733E-5	0.012269644	5.3613712E-5	-1.4E-45	4.8945E-4	5.6E-45	-1.4E-45	-0.0021379509	0.002215719	1.003345E-5	0.0093306415	0.025565967	-3.7952294E-4	8.028818E-4	-6.303791E-20	-7.701516E-6	0.004505673	0.0	0.025260648	-1.4E-45	0.012911056	-1.3661238E-4	-0.023267003	3.5566441E-10	-0.0015282786	-6.801568E-13	-1.405221E-6	-3.1797742E-6	-1.4E-45	-0.024970025	-0.012480849	-4.212732E-4	-0.0025000027	-0.0034766176	-4.2222229E-7	0.009965096	-0.0062214457	-2.8E-45	-6.865245E-28	-1.2368045E-10	0.018501054	-7.841005E-15	-0.0069961073	1.2770489E-4	9.5035514E-4	0.0014175976	-0.003460877	-8.4E-45	0.0031413496	-3.7131505E-4	0.0017978342	0.0	0.0014359326	5.6E-45	7.0E-45	-1.0270447E-11	-0.008652637	1.9213462E-9	-0.025840906	2.8E-45	0.0	5.727172E-4	4.7174705E-19	2.8E-45	3.6274487E-5	0.014928085	-2.9532282E-5	0.0019496905	3.7531406E-4	-0.020051988	1.1518906E-16	0.031297166	5.6E-45	0.014210049	-4.4019643E-16	0.031118877	-5.760053E-10
0.022951208	-5.926527E-4	5.7384486E-10	-0.018768936	-1.175076E-7	-0.019106766	-5.67803E-6	0.0025278414	0.019995013	1.9072756E-19	-6.781225E-6	-0.002837826	-0.0013094931	1.4E-45	-1.4186249E-7	-0.001862733	-1.2270247E-5	3.271082E-4	-9.719345E-10	0.0012905264	0.0035852054	0.0012546419	0.024026133	0.0026925844	0.0018148378	-2.8540156E-4	0.021354489	0.0	-2.3936843E-36	0.0052112946	8.2950064E-5	0.01384868	-2.66879E-5	1.3141781E-9	0.014286215	-7.815642E-9	-1.0756697E-8	-1.4E-45	3.349442E-24	0.012486157	2.0814E-21	2.8E-45	0.0020590133	-0.0025714694	-0.009833434	2.0423975E-6	0.0099359425	-0.0032630276	5.0976243E-24	1.0950043E-5	2.8E-45	-2.4860341E-11	-0.0099563645	4.90855E-4	4.3404096E-8	-1.4928154E-5	0.018356252	-1.05735E-40	-9.4781764E-4	0.0046772403	0.0	6.8623045E-14	-0.004356233	-6.177076E-4	9.653328E-5	4.2E-45	-0.006446056	2.8E-45	2.661339E-5	0.0020512932	-0.009608801	5.206671E-6	-5.094258E-4	-3.0063251E-5	0.0	-2.0906628E-13	-2.418693E-5	-5.9953018E-5	-1.102028E-4	0.001294722	0.0	-9.619155E-9	0.015217145	-9.09283E-32	3.327264E-9	6.871312E-4	1.1507625E-7	-1.4E-45	-2.8E-45	-1.1732203E-4	0.014747288	0.004270479	1.4808768E-5	-1.4E-45	0.022939947	9.502377E-14	0.0022419882	-4.1376873E-7	0.016286192	-0.001282011	-0.0050520366	-1.9650265E-7	-0.0022114627	8.950825E-15	0.020767992	-1.1032233E-34	0.030196335	0.008505076	-2.4802167E-8	0.018649058	0.010177258	-3.8194676E-7	-0.014782083	2.8E-45	2.3684592E-4	0.010732337	0.0013230225	-7.0E-45	0.0013862066	-4.2E-45	1.3523741E-9	-1.3334018E-18	-0.001488876	0.0	-1.2952157E-15	9.33589E-10	0.0	0.0	-0.016010525	2.0772002E-27	-0.018429324	-3.0615512E-18	0.0010516907	0.0057838196	-0.008294116	-1.7360001E-8	8.782755E-5	-6.717858E-17	-5.133781E-6	-0.027564254	0.012181246	1.204085E-5	0.0	2.9102564E-6	6.6596045E-13	-0.0010158698	-2.6006048E-6	0.0010888292	1.00481986E-4	-4.8461623E-4	1.077581E-8	-0.020527657	1.04370815E-14	0.0	0.0024048225	0.00571368	0.010706463	0.009769309	3.4756472E-6	0.0126768295	-0.0010079535	2.2501372E-6	1.7078333E-35	-2.8E-45	2.8E-45	0.0	0.011132892	-0.010716707	0.004881995	0.023871258	5.6E-45	0.0	0.004851336	-0.009112136	-1.10893135E-8	0.0020951708	-1.6697091E-23	-8.358814E-6	-0.018502427	0.0	0.0011978073	2.2252014E-9	0.022103906	0.017729945	3.9586055E-5	8.5085386E-4	-1.2259862E-9	2.683009E-4	-4.2E-45	-3.494992E-4	0.03159527	-5.6E-45	-1.1949223E-8	7.713966E-5	8.2846505E-5	0.012551396	-7.94077E-8	-0.0041193594	-5.82613E-10	-0.022911094
0.0047664633	1.4198497E-11	1.682608E-16	0.013635171	0.0016091117	-0.017432235	0.0068461285	-0.017523063	-3.4039535E-4	3.832679E-20	-4.5389167E-4	0.0029947911	-0.009958602	-2.0001854E-18	-3.456154E-11	-2.8E-45	7.0E-45	-8.434339E-5	-6.4499977E-12	-0.012099178	0.02518149	2.7606335E-14	-1.9418048E-5	0.019260973	0.008016731	-6.3401E-30	-3.7313266E-10	2.21204E-7	0.004577048	2.3224318E-6	-2.232455E-17	0.015545756	6.250202E-5	-0.032470103	-1.4E-45	1.32804E-40	2.3021958E-5	0.028200734	-1.4E-45	-3.9076916E-15	1.6551974E-5	-0.032228414	0.030459382	-0.031829864	9.8727345E-5	7.75207E-4	9.1698175E-6	-3.8293506E-20	-6.212952E-5	-0.032446194	-4.196985E-4	-0.00949366	-1.4545216E-4	-2.8170774E-35	-0.028307583	0.021648368	0.0068436316	0.019065902	1.1316211E-34	-3.1920706E-4	-0.014937754	0.025101233	-5.8337788E-5	2.2113512E-17	-2.8E-45	0.0	-0.0192858	0.005484686	-0.008610271	-0.0034080737	0.0025469759	4.3907785E-6	4.0045114E-9	2.4048519E-5	9.4339505E-8	8.640516E-8	-5.351211E-4	0.024702126	0.0010692775	5.625341E-38	7.4972334E-11	-2.2039318E-5	-4.2E-45	-8.621718E-6	-0.0022149251	0.02452962	-0.0034529755	-0.0070202164	5.18E-43	8.141879E-34	0.023910275	-5.4682745E-30	0.00556768	0.011285418	0.0	-0.005092333	-0.0010082482	8.531814E-10	0.022240173	-0.0026797468	0.028909555	-0.0092839645	-1.749108E-39	-1.1008368E-6	0.0090037035	1.2379395E-7	2.7401018E-10	-1.6088469E-15	0.020169327	-0.01505304	0.023390481	1.1718553E-8	-3.814183E-7	-1.181258E-31	1.5997848E-5	0.025219247	-4.2E-45	-0.009085607	0.0068958136	-0.0019671735	0.0	-0.0014309067	0.0	-1.4E-45	-3.5927863E-21	-0.0059959744	-0.017260956	-0.023608526	0.002505827	-0.018651761	0.010588165	-5.6961266E-4	1.4E-45	1.2647604E-14	-5.1467337E-9	5.476927E-26	-4.6533128E-7	-0.0061846	1.4805627E-6	1.1565314E-15	-0.0019225018	-0.00474628	-6.2966034E-34	-2.914596E-14	0.0	0.032355927	0.0018257545	-0.008873179	-0.011197854	-0.010090051	-0.010321652	1.5886505E-7	-0.023081824	7.652364E-9	2.7E-44	5.7246892E-27	-0.0022366135	2.6932092E-8	-7.1368965E-17	-0.02251451	-1.1665776E-22	-4.039291E-4	-0.001921406	0.006705618	4.7612004E-5	2.0523928E-5	9.553761E-6	-4.552575E-5	2.461361E-17	0.011050643	6.024148E-7	-0.0064101876	8.0743933E-7	-9.652294E-4	2.181127E-7	1.4E-45	-8.1958705E-15	-7.6965795E-10	-0.015632343	-1.4306759E-9	-3.7740963E-7	-1.0419463E-6	5.420035E-7	1.5415832E-8	-3.5966525E-5	-2.411901E-12	5.5702443E-11	2.2925857E-9	0.004420661	0.0	0.023822105	0.0	0.024826761	-1.6084634E-4	0.0	-0.005396315	1.9851466E-36	-4.2E-45	0.013682417	-0.0044601695
0.0	1.9906019E-26	0.0021262653	-3.9146266E-6	-0.01782199	1.8895823E-9	0.01014566	5.7105627E-4	0.0	2.7182818E-5	0.013064316	3.5584302E-4	2.3819381E-18	-0.020984666	2.8208453E-18	0.0028355059	1.34124335E-11	-2.8E-45	4.5924008E-11	0.0022524586	-0.01195709	0.009383373	2.7931163E-5	-4.2E-45	5.6E-45	-0.011460289	0.0030514775	-1.4E-45	0.0	-0.013298277	5.6E-45	-2.959086E-6	-1.0901013E-8	1.4274985E-4	1.8809483E-7	0.015671806	0.015920645	1.4868616E-4	0.004036397	0.025573552	0.02725025	-2.1495257E-4	0.003532212	-0.0029583173	-0.012335353	0.0	0.015670443	9.534229E-11	-2.8E-45	-3.6293095E-20	-2.1420132E-7	-1.2466597E-9	-0.011520901	-3.2921894E-11	-0.03112974	-0.022745777	8.47771E-5	1.6997689E-26	-1.5269924E-15	-0.013625792	7.6883104E-8	2.2859406E-29	3.123294E-7	-9.1614835E-5	3.2344873E-5	1.520923E-5	4.2E-45	-1.7038112E-24	0.024734735	4.7709595E-6	7.985479E-4	4.81949E-19	5.6E-45	-2.965274E-35	0.014063325	-4.2E-45	0.03197355	-1.5831424E-6	0.002360953	-6.74473E-9	2.0627174E-4	0.010111243	0.018608486	-2.6829571E-8	-0.0054324204	-0.013475677	5.963539E-10	4.992193E-7	5.6E-45	5.6E-45	0.013443914	0.0	0.010223292	0.010846864	-5.0745662E-8	1.4E-45	-0.013707178	4.2E-45	0.006268699	0.010700396	2.0317661E-6	-7.0E-45	-1.11814734E-4	-0.02005384	-0.020380922	-2.27E-43	7.479138E-17	0.01775844	-1.04091145E-8	-1.2569962E-5	7.081413E-24	0.0045761773	-1.4E-45	3.838419E-5	-4.61644E-4	0.0011994765	3.474591E-21	0.0023629765	-0.0046438556	0.0	-0.029356176	1.8116072E-13	4.1402214E-5	7.879288E-8	-0.012601494	-0.0072473106	-8.816947E-5	-4.2E-45	-9.077285E-4	-0.0037735612	3.0501903E-4	8.390676E-4	-4.2E-45	-0.0043818117	1.4811091E-22	9.750657E-5	0.005314869	-5.0597836E-34	-1.6656725E-11	-0.0028304162	-2.8125726E-9	9.739447E-4	3.4127464E-5	2.8E-45	-0.01872331	-0.0327712	4.0372346E-5	3.1707932E-5	-2.4341365E-4	-0.0010924891	-1.2954185E-19	0.0016721708	-3.2292068E-4	1.4584808E-22	-1.0157016E-13	0.018298898	1.2045338E-17	-0.020842344	2.7947001E-8	1.729857E-10	0.008937816	5.6E-45	-0.0038483352	0.010882114	-4.511724E-6	-2.5577302E-4	1.4E-45	1.08138884E-4	-0.013184129	1.9943526E-14	0.00156606	6.675865E-7	0.001478143	1.6364337E-9	0.0	-1.8496173E-4	0.008742604	-5.395378E-6	-5.9291153E-7	-5.3497847E-32	-0.012990363	-1.4E-45	-4.2E-45	-0.0045727873	-1.2966877E-24	0.0048233387	1.7296008E-5	0.002809288	-0.009028081	2.3327256E-7	0.0013426362	-0.014372141	-1.4E-45	-2.134494E-4	0.00217368	-2.9239484E-31	-0.01369815	-0.0069430745	-0.002481801	3.0724355E-12
4.1329797E-4	-8.026252E-9	-0.025943693	9.852166E-5	-2.8E-45	6.4996916E-6	-0.012593159	0.0010828889	-2.3961107E-11	-0.0023536624	-4.6908415E-5	-0.0029051318	-1.260382E-6	-0.026427113	1.2968796E-35	4.2037296E-15	2.5449315E-4	-0.022688169	0.0	0.0029322312	-2.8E-45	0.0	0.010871764	-3.2231995E-4	0.0051679215	-2.8E-45	-0.015499836	8.0049105E-8	-6.465034E-13	1.9740457E-4	-2.7251614E-11	4.0772616E-6	-6.729339E-19	-1.4057652E-13	-0.0013687913	-9.714375E-7	-1.0518444E-5	-0.0016166194	0.005502663	-1.4E-45	-0.010007669	-0.012330952	0.020914748	2.6990182E-7	-3.549509E-26	2.6595922E-36	-1.0194214E-5	-5.0361925E-20	-1.6733702E-13	-0.023820955	7.157465E-4	-4.4377966E-6	5.3405818E-21	-0.0019236096	-9.722762E-25	-3.9207436E-8	-9.1367565E-7	0.005541638	-9.1084035E-4	0.0	0.0	-0.0035948353	-0.0246221	2.3430055E-6	-2.4652056E-6	0.032353327	-1.4E-45	-0.012731357	0.012451774	3.566752E-5	-6.320793E-33	0.0055211484	-3.0677957E-27	4.212732E-4	-7.411279E-8	-5.719002E-27	-1.6328288E-4	-1.3259399E-5	1.0751173E-11	-0.020330701	-0.0062792813	1.016807E-12	0.0	-7.0E-45	0.018974364	0.028646158	0.021737216	9.118554E-6	-9.4874684E-7	-0.0014151211	0.0017804237	2.871146E-4	-0.025341019	-0.015486796	9.821659E-4	1.4E-45	1.0046609E-7	0.014449935	-3.0283427E-5	0.014809945	4.0615927E-5	2.8E-45	-1.2378887E-14	7.7888404E-4	1.1855716E-17	-0.009742814	-0.0029655185	0.008708103	4.4572036E-27	-5.6E-45	0.017033119	-0.0053822286	-6.687616E-5	-4.3309952E-5	-1.4E-45	0.0017599008	0.0037847555	-0.003591936	3.070974E-9	-0.010674998	0.024918247	8.435415E-4	-0.028227134	0.0075441515	9.4227105E-11	0.0	0.0	0.008520969	-0.0035067995	-6.345698E-4	0.01629506	0.0	5.6E-45	3.915009E-5	-3.3085165E-10	2.683783E-11	-4.2E-45	0.032231726	1.1886923E-5	0.0	0.014601133	0.0025844004	-9.160375E-22	1.3120501E-9	0.006296434	-1.4300481E-7	1.757493E-7	0.0024584415	0.01250461	-0.016796656	0.014478357	-0.0016880725	0.0	0.018455083	-0.001787826	5.4940392E-5	-0.003037059	8.833599E-21	4.554163E-13	8.798982E-23	-9.279775E-4	7.474835E-12	8.800898E-4	-0.0029118264	-0.007909393	3.8989306E-10	-4.537175E-13	0.0023057514	-5.4572297E-6	-6.632969E-10	-6.4586873E-32	1.1210249E-11	1.112131E-39	0.008509587	-5.033532E-11	0.0011902298	0.0035205802	-1.4025053E-33	3.0667493E-9	-3.746749E-7	-0.0027443345	0.005273232	0.0015636317	0.0048138583	9.583076E-15	1.8779357E-18	2.3600529E-4	0.015342164	-4.1183695E-10	0.0	-0.008088755	0.0028285475	-0.008800043	3.1435826E-5	7.0E-45	-0.023266217	-4.2492743E-6	-0.02353727	0.024084657	1.1321498E-7
-0.004695141	-0.0025879415	0.0	-0.002529502	-0.020053148	1.3494892E-4	5.552833E-4	2.0526146E-12	-3.495484E-20	0.004548293	-0.0051037367	-8.062757E-6	0.011117251	-1.4955802E-6	-3.8012593E-6	1.1517096E-27	-0.003447651	0.010719268	-9.373054E-5	-0.024130117	0.0029317595	-3.3713315E-21	-0.020720178	-1.1E-44	5.6E-45	-0.0173794	4.8995823E-30	3.272478E-7	7.1975617E-9	-4.2E-45	-0.014736001	3.2647353E-4	-0.005244772	8.073967E-8	-0.0045300345	-0.011346339	0.020234233	-0.008537508	0.009872081	-0.022690611	-4.915808E-6	0.0059280964	-4.2E-45	-1.1356454E-6	0.0	1.1831993E-5	-0.0067094355	-2.1968E-41	9.199595E-17	-1.2702723E-7	4.900023E-5	-1.2856195E-7	-0.004768704	0.0017015992	3.2035912E-19	4.2E-45	0.0109119	5.282005E-24	-1.7206397E-14	4.537336E-15	-0.003936602	0.018634992	1.3181713E-7	-1.4911603E-8	-2.8E-45	0.013273277	-0.0012265568	-0.012520445	2.8E-45	0.0012949783	2.0908317E-5	1.9624642E-6	-0.0029192837	-0.025274416	6.25176E-13	0.0	-1.1105523E-9	-1.6905925E-4	-1.31523975E-5	5.859231E-4	-2.0642615E-4	0.021009006	4.2146847E-37	0.0066431398	0.00843121	0.025659855	-0.023541462	3.9213023E-6	0.019768883	2.0818138E-18	-0.019435422	-3.9993965E-15	0.032692928	-0.0019296125	0.0021750536	0.008480457	-0.003458037	0.030672835	-8.4839843E-7	2.949321E-15	-0.0013076871	-6.0325654E-8	3.6964476E-18	-0.008954098	-5.661313E-9	0.03258314	-5.7942593E-6	-1.3287344E-7	2.8E-45	-1.5011642E-4	-1.13104164E-4	6.4894193E-18	5.9019413E-4	1.5261502E-4	-4.2003678E-4	6.937315E-10	-0.0025248334	0.0046776044	1.7131688E-11	-1.2402472E-4	9.454253E-5	1.4E-45	-2.0492183E-11	-6.512624E-4	1.7733895E-10	1.9195765E-4	4.7949204E-4	2.8843085E-13	0.026944874	-1.5705091E-9	-1.131747E-10	0.0	-0.019876124	-1.9155698E-6	6.10312E-6	-1.2583269E-32	5.9118515E-14	-1.3488697E-7	-0.028305165	0.0041219224	-8.2148195E-5	-0.0026506097	4.2E-45	2.436667E-6	2.9002311E-24	1.906942E-9	0.016671596	1.7790107E-6	0.031144759	5.3953397E-9	5.6E-45	-2.3997726E-11	-0.008595103	4.312034E-5	-0.012908162	0.0	4.8398404E-27	-6.1703637E-13	-0.013923303	0.0011688865	-8.46106E-22	-1.6144723E-4	-1.3060732E-9	0.022992946	1.4E-45	-0.027912337	2.4368057E-5	-0.007242256	-0.020888386	5.7421266E-13	2.2330272E-17	0.0028502317	4.112571E-32	-0.005614872	1.4142266E-5	3.6066035E-27	0.0022460287	0.0016437982	-0.0049048094	0.0029182613	-0.017249817	1.0118395E-5	-0.018685978	-0.0017130021	-1.3899353E-9	-0.0252616	-2.6182552E-6	0.019613758	4.5219277E-15	4.1394133E-10	-1.0188873E-27	-1.9983095E-12	0.013260506	-0.0138080735	0.015367693	0.0014899179	1.3864789E-7	-0.006523018	0.0	4.241297E-6
-1.4E-45	-0.01052953	-0.013228892	-9.88221E-25	0.0023574312	-6.680036E-9	-9.630514E-6	-0.0029326596	6.44856E-23	-2.0492889E-15	-0.0084940065	-5.059376E-5	2.5732621E-5	0.0024035727	-1.0293145E-12	-0.0035080032	0.020073837	2.5542063E-4	5.6E-45	0.0023276082	3.73364E-20	2.3195148E-9	0.012730636	0.0015930843	-0.0067549865	3.6491636E-7	-0.0018479642	-8.6467425E-20	0.0013990551	-5.923431E-6	1.1577077E-12	-6.52414E-4	4.217391E-21	-0.00726177	0.013821022	-4.0445383E-14	0.019382471	0.0	-6.899005E-10	4.1810137E-13	-1.2566012E-10	5.6E-45	-0.0054201353	0.014260095	-0.0011920324	-1.3141612E-29	-2.6511918E-7	-5.1446655E-15	-7.4973775E-7	0.0	1.0673775E-30	1.3913644E-6	-1.3343214E-4	-8.950502E-10	-1.1534028E-6	0.0019034386	0.0	3.5575213E-6	-2.5884586E-4	-1.4E-45	-0.00513668	-0.018496327	-3.9348545E-4	0.004560312	-0.005273002	1.4547665E-4	-2.738826E-4	3.1281633E-9	-1.4E-45	-2.8722416E-10	0.0	0.03149894	1.6939585E-14	-0.004778418	-0.026653789	-2.4669006E-27	4.654239E-5	-0.0073992307	1.7808141E-19	-5.315793E-29	0.0	-1.4207368E-6	-0.031769462	-0.02404973	0.0024827826	-2.5775528E-4	-1.4E-45	4.2246545E-5	-1.3599167E-7	-1.4E-45	6.451526E-21	3.750891E-32	6.1842536E-7	0.0	-4.5650484E-4	0.024664693	-1.6563248E-22	-5.187087E-4	1.1699249E-4	-0.0011352724	-1.4E-45	-0.0058647012	0.0020300888	4.2E-45	9.3732646E-4	-0.006810135	5.380573E-9	0.0014936988	2.6336209E-5	-2.286524E-37	2.8E-45	-0.010142101	2.1321028E-13	0.0	2.4308153E-32	4.9064495E-4	4.7860516E-4	-0.0043947552	-2.5558367E-7	-9.427936E-26	0.0017538534	0.02842833	0.0015097602	0.027014576	-4.8124793E-4	3.1098883E-5	-0.0030083202	-1.4E-45	-4.049242E-4	-0.022022774	0.0016100905	0.012553491	3.8233793E-5	-2.3207402E-5	0.0025094755	-0.012058102	0.031757742	-1.1947769E-8	5.6E-45	0.003405475	-5.6E-45	0.0	-2.8E-45	-0.031128675	5.463205E-5	-0.0013060077	-1.5113958E-14	0.012789355	-7.3903825E-6	1.928718E-14	-0.024796361	2.9127795E-16	-6.528039E-14	3.306586E-6	2.5266324E-26	-0.019693853	-0.008079692	0.02279059	4.4611406E-10	0.0032870444	-4.324348E-6	0.029420558	0.030008702	6.658698E-4	0.0	8.424201E-4	-7.39068E-9	6.258614E-10	-5.500507E-4	-4.0234225E-19	4.945594E-12	-0.005715084	7.138628E-5	0.002193415	2.7447822E-13	-7.0E-45	-0.0014022995	-7.0E-45	-9.678564E-8	1.5315547E-5	1.9743512E-15	-0.01224301	-0.016959863	-0.024067346	-1.6898402E-10	3.1389264E-4	-0.002752293	7.950477E-10	-6.300134E-4	-2.4658753E-13	1.4E-45	0.0039304025	-0.025996216	-4.3936094E-4	0.00917947	1.0306393E-8	-3.9E-43	9.829055E-5	-1.6361843E-9	0.032186214
3.551155E-10	0.0	-0.024411662	1.6942098E-4	0.013367227	1.2032127E-8	-0.0025888355	-0.031212302	-0.0012053754	7.085639E-5	0.0	-5.3965177E-6	-5.6E-45	-1.1935761E-11	8.560608E-24	-0.0053063896	0.0011674014	-2.6792182E-5	0.017360386	-5.6E-45	-0.0018628384	3.4724062E-4	0.012966243	0.018467616	-0.03107847	-3.6470956E-5	2.921487E-4	0.002720293	0.0054133683	7.2227675E-5	0.023897719	-9.285231E-4	3.2993732E-6	-0.0010481321	0.027394319	-1.4E-45	1.0942174E-5	0.02319801	1.5272099E-15	2.3055668E-8	0.029109225	9.963543E-8	-0.024159782	-5.071633E-5	5.4655055E-7	4.2470777E-16	-0.0037073337	-7.3813344E-4	1.4583337E-4	-0.00379451	0.0	0.0059034666	0.007403214	5.65365E-40	5.1225566E-8	-1.4E-45	0.022198142	7.426631E-5	-0.016338972	5.859181E-4	0.0058570113	-5.8175847E-5	5.846906E-6	0.01998651	2.8765973E-4	1.823392E-4	-6.125743E-4	5.6E-45	-2.9892804E-5	-5.417337E-19	0.0	-0.004538849	0.0	-0.031974923	0.02670118	-0.0025506825	4.8030273E-9	-1.4E-45	1.2603384E-5	0.005144948	8.975394E-7	-1.3421942E-4	0.0021560593	5.2889367E-4	2.0343743E-6	2.1428039E-6	-2.626661E-7	5.3140614E-4	0.006354165	-5.796454E-10	-8.779134E-4	0.0	-0.026951546	0.0	4.867759E-31	0.0041787634	0.0	0.007982687	-0.0092265485	9.774357E-4	2.8846787E-6	6.183328E-4	-8.190544E-10	-4.7442546E-23	-3.1674634E-5	-0.0040987483	-0.021444295	-0.005362696	0.0058720037	1.1062422E-4	-6.4120936E-14	-2.7014477E-5	-6.626728E-4	-0.017581707	-0.008085353	-0.013423147	-5.026148E-11	-3.7868908E-8	5.6E-45	3.3843948E-4	0.0011621929	0.0	-1.660465E-5	-1.430666E-19	1.6592747E-4	1.1896986E-17	1.4728004E-5	5.6E-45	-0.010436999	-0.026377955	-8.404169E-7	0.0128711	0.0059707677	2.8E-45	-2.8E-45	0.012907237	2.721774E-4	0.0116234915	-0.005044294	3.0438823E-5	0.0	-4.2890746E-36	-3.5596157E-29	7.901847E-19	-0.024293143	-0.010995753	3.5142243E-8	5.6E-45	0.005041688	-6.802762E-39	-1.7858531E-4	-1.12569875E-11	0.0075744544	-0.0083535295	0.018685617	0.0	9.2497E-41	-4.7871174E-5	4.356956E-8	0.013798307	0.0	5.1311253E-15	0.03138609	-0.002805333	7.4491824E-4	-0.024736162	2.3942785E-5	-0.015045835	0.0145224305	-0.021906553	-0.005020228	-1.4E-45	-5.6E-45	-4.000115E-6	0.027689407	0.0023144747	2.3703033E-6	-2.4440695E-4	1.4E-45	-2.4460025E-9	0.02656926	-1.2882925E-9	1.6068276E-7	-1.9390607E-17	7.777341E-4	-1.4E-45	0.00233545	0.0	0.0067990967	-8.229372E-23	2.8E-45	-4.2E-45	2.546015E-4	9.9009425E-18	-1.0905747E-15	-2.8E-45	0.004364993	0.012378871	-1.8438712E-16	6.5561944E-6
-1.934949E-16	3.845941E-8	0.015055312	0.0042978083	1.6201767E-8	-0.014970314	-9.340363E-28	-0.002965573	0.029582616	0.020077033	-0.0036402524	0.004090987	-1.0601579E-13	-0.0015500181	-9.723859E-5	-4.2658744E-6	0.0067806346	-6.101912E-4	-1.4473778E-6	-7.0714843E-20	3.0057887E-10	2.6526672E-4	-0.006066189	-0.009327368	5.6E-45	0.005109245	6.1033876E-4	1.8703454E-7	0.0067190914	-0.0031616732	-1.1011617E-17	-8.121415E-4	3.0943562E-7	1.4715343E-6	7.109799E-10	3.377334E-4	5.4303317E-8	1.6034372E-24	-8.307321E-4	1.5547956E-4	0.0	3.96E-21	-8.44423E-10	0.0026136748	1.1488074E-23	-1.8125192E-9	-0.030131424	8.457144E-17	0.0033527643	2.8E-45	0.019090455	-9.937362E-9	7.508396E-5	7.954851E-4	-0.002954355	-0.016517386	-7.8705297E-4	-2.7018837E-7	2.6455487E-4	0.0	-0.021073863	1.685539E-24	-3.9041317E-19	3.408875E-5	4.338263E-4	7.637949E-7	0.0	0.0	-0.0037854135	0.030322466	-0.024936112	0.005100394	-1.1862727E-10	3.716977E-4	0.0058772233	-0.0063298643	0.018281432	5.0737587E-12	-1.4E-45	6.895914E-8	-5.6844783E-6	0.005293755	5.830628E-4	2.8E-45	-4.2E-45	3.7977998E-7	-0.012030332	5.5764016E-4	5.8526308E-21	-0.0046548764	5.219063E-9	1.4E-45	-0.009168515	-4.646349E-5	-0.025720766	1.9543807E-16	0.0	0.0032456578	0.0069174566	-0.017758459	0.0033900435	2.5167549E-6	0.005246913	-5.597011E-4	-5.307753E-18	7.0502143E-4	-4.7804246E-4	1.8103468E-19	-4.2E-45	0.0	-3.2635202E-5	-3.3603231E-7	-0.014151884	0.002397327	-5.3628976E-15	1.8899732E-10	0.0	-0.01394508	-0.007641834	-2.5594328E-4	0.017325679	0.0019088433	7.225345E-18	-2.946179E-5	-2.7374875E-7	0.01461949	0.017032932	-0.0049554473	-1.4E-45	0.010753214	5.6989345E-4	1.4850166E-10	-0.017152622	3.885949E-37	2.1856853E-5	6.174199E-4	9.4402644E-23	1.138144E-26	3.7776765E-36	0.0	-0.0065322854	-1.4511429E-9	-1.4535839E-13	-6.0410257E-5	2.8E-45	4.4144977E-9	-2.2343423E-14	-6.859782E-12	1.0318177E-8	6.2859907E-26	1.6253355E-21	1.1073801E-5	0.027639413	2.8E-45	2.9742063E-4	-0.0010921751	-1.0737927E-7	0.0060024257	-7.358548E-10	-0.0012145196	0.018277606	-2.1254264E-6	-2.0385123E-4	-5.6052284E-7	0.009650799	0.018125564	-0.0068609514	-0.005898504	1.5464544E-4	-5.4674706E-30	0.0	1.4E-45	-0.0044998783	1.0117877E-4	-0.011173509	-0.0011981251	4.919783E-4	-0.0029863461	6.451639E-4	-0.0013127289	0.030502615	2.8E-45	0.0	9.8E-45	1.8010498E-4	-0.009658473	-0.0010044044	0.017317625	-1.0231646E-4	-2.9768625E-19	1.2080602E-11	-1.2E-43	0.023687692	3.2844956E-9	6.0119976E-35	2.5862482E-4	-1.4E-45	-0.0026280922	1.7507635E-4	-0.0043987115
-1.9704865E-5	7.751784E-34	1.6717939E-9	1.4825535E-4	1.1159388E-19	-6.6404705E-6	1.430308E-4	-0.03271663	-0.026052475	1.459738E-16	-1.0156121E-11	8.478668E-11	0.0036601173	9.13162E-19	7.06933E-40	-5.001828E-7	-1.4E-45	2.49441E-4	-1.632767E-11	0.0013374453	2.8723966E-7	0.002222282	-1.5146657E-8	-0.029579073	-0.001788345	-7.0E-45	1.6249942E-5	1.4386769E-16	6.628017E-4	0.0028946635	0.0071092653	-2.8E-45	6.059767E-5	0.0066028815	-1.1852556E-11	0.0063381977	-5.583614E-9	-1.0435354E-18	1.1669713E-4	0.03227776	6.446135E-6	-0.004408185	0.0014781805	7.123887E-11	-0.0010625388	0.0076153344	0.011162228	0.003699013	0.02402494	4.6707275E-5	1.4E-45	2.8E-45	-5.2329926E-7	-0.0030999589	-2.660973E-21	0.0049311174	6.1366813E-7	5.5981547E-10	-1.9131641E-5	1.4E-45	-2.3933954E-37	3.542646E-5	6.3558685E-18	0.027314167	0.0	1.4E-45	4.129668E-11	-5.6333274E-6	-7.903492E-7	-1.4E-45	0.013100645	-0.029220697	-9.197514E-12	2.8220843E-6	-0.011953332	-1.4E-45	-0.009839894	-7.044489E-7	4.959385E-4	0.015491248	0.0	0.0042042127	-0.03296392	-7.654607E-20	3.9003247E-8	0.01810249	-7.128421E-5	1.5701478E-17	3.9045506E-5	0.005238938	0.022315606	-9.03161E-11	1.4E-45	-0.01573914	-1.4E-45	-0.015866345	-7.2608386E-6	-4.7092533E-5	-3.7757456E-4	9.06136E-6	-3.2167337E-4	-7.5984594E-19	-3.454486E-4	1.3753499E-6	3.4595704E-17	-5.6E-45	6.3048644E-10	-2.4488633E-9	5.6E-45	-4.9404696E-7	-0.012017936	-8.593235E-16	-2.5282498E-4	8.23965E-9	4.2E-45	8.959065E-4	-0.0026745184	6.843062E-8	0.024136862	-9.51069E-5	-0.02824742	-8.378648E-6	1.8367068E-8	-0.00585347	-0.0044953297	-1.9800096E-8	8.4E-45	0.0	0.010114362	-4.1429903E-6	-0.010827531	-7.845462E-6	0.011004159	-0.011331357	-1.4435936E-4	-1.1836424E-8	0.0014218576	-7.2875697E-9	1.0547055E-9	0.013626188	-0.006879188	-0.008401519	-1.6359104E-10	-9.503103E-26	-3.3281017E-6	0.005801682	1.5942832E-7	-0.019130476	9.984303E-9	-8.942515E-12	-1.4E-45	2.5405399E-18	-0.0043781404	-0.0044479524	8.1074475E-5	0.02292505	0.032801062	0.00310731	0.026762223	2.8E-45	-0.019335244	-1.1158521E-5	-0.02569385	-0.0041976487	-0.031338364	0.028586555	9.849077E-4	4.6199642E-5	-1.4E-45	1.0318384E-8	0.0	-3.4327022E-10	-2.8E-45	0.028148465	0.019297982	-9.2463876E-4	-0.004264907	-1.3923939E-9	8.250303E-12	-0.010040564	0.0	-6.1642815E-4	5.029463E-34	0.0020702742	-2.6956195E-8	0.0159244	-2.9084282E-8	-0.013130105	-0.001978046	-1.4639655E-4	-2.8E-45	-1.4904901E-4	4.9774565E-7	3.2749242E-10	0.019365858	5.6E-45	1.9094943E-11	0.0066982233	-1.5308801E-9	-4.391434E-5
4.2E-45	-1.4E-45	2.8E-45	-1.4639331E-5	-1.5206967E-4	5.6E-45	2.3228597E-6	2.3913814E-4	2.0621064E-6	0.01068969	3.2495904E-19	5.7200687E-5	-4.4239234E-5	-0.014810346	6.7392473E-13	0.002465083	5.4617464E-14	0.0	-0.004853686	-0.0012221235	-2.8E-45	2.8E-45	0.0	1.1520445E-5	-7.6250064E-5	0.0	3.5220374E-17	2.6316616E-6	0.010523255	-0.0076394	-9.6248975E-4	-4.024636E-4	-0.008933593	9.336691E-6	0.0010122757	-0.010298749	-2.8713168E-5	-1.7094973E-4	0.01617091	0.0	5.1391193E-20	-3.0480525E-19	8.845924E-35	1.1214019E-20	0.018315168	-5.077141E-7	-5.3565344E-4	-2.091824E-37	0.0032039445	0.029999707	-5.66303E-40	4.4836276E-23	0.028928362	-5.9456613E-9	9.4713335E-4	-3.365895E-19	-3.793E-42	-0.0014572901	0.0	-0.028169358	-1.892352E-14	0.0	-6.2287094E-5	0.0074612913	2.9682997E-4	-0.008266583	-8.074757E-4	-1.7486343E-8	0.0326032	3.3786285E-4	-0.0031309633	-0.0021453185	7.144366E-5	-8.322581E-6	-1.9432385E-24	0.0076581347	1.2011288E-8	-2.4623947E-8	-1.4E-45	2.8E-45	-0.0010188599	3.6429493E-10	-4.8986916E-13	-5.6E-45	0.0025766222	-3.1677292E-8	1.4E-45	-0.004050763	-0.024505258	9.538408E-29	9.777883E-7	0.019465316	6.909459E-13	0.01659105	-2.2097433E-5	1.3632898E-5	6.1703065E-12	-1.9351857E-4	3.1004205E-5	-0.0030857597	-0.015153288	-0.018033424	-7.720641E-4	-0.003100177	-8.9792593E-4	8.311903E-6	4.627443E-4	0.0015052368	0.015269879	-0.0061006607	2.0828061E-7	-5.997591E-6	0.029454732	-0.0015403606	-2.8E-45	0.0016720748	-8.583113E-30	1.4264765E-4	-1.968212E-13	-2.4307724E-6	-6.571824E-6	5.774499E-13	-0.017262677	1.3261466E-7	0.0014765419	-0.016093383	0.0	-2.1177475E-6	1.1142293E-18	0.02275707	2.7295226E-5	-0.017525075	-1.2940273E-5	-2.1842721E-5	0.025827039	2.3308881E-7	1.6525079E-9	-0.015349015	-4.2E-45	-4.6444537E-26	-0.016948482	3.5202025E-13	0.009162176	-0.003018362	-6.3175844E-23	0.011524481	1.9305184E-19	7.327933E-4	-0.029857669	7.994435E-26	-3.821791E-4	2.8E-45	-0.0020959114	-5.186406E-16	-0.0050144317	2.3620397E-11	-6.6438095E-17	-0.004637083	-5.6E-45	6.514557E-7	1.6966955E-4	-0.031436	-5.6E-45	0.008075094	2.4621424E-22	2.90069E-8	0.009434117	-0.012440818	7.360083E-18	-2.8941873E-15	8.865056E-7	3.069E-42	-4.151856E-25	2.0481E-41	3.4671306E-4	6.5930035E-5	2.1445892E-7	-0.0021638619	-0.0017349347	-3.695229E-15	0.020318517	-3.4584198E-6	-4.9472693E-4	-0.0117946705	7.3462736E-4	9.833692E-11	-5.818195E-9	-1.1350438E-15	0.0050769933	0.017832717	-1.7296983E-29	3.3438707E-10	2.8E-45	1.8E-44	0.031339366	-0.0036228697	0.0047591752	-4.443181E-11	2.8E-45	1.5445901E-16
0.013865404	-0.0022223124	-0.00799979	0.0	-0.031110419	0.018662617	0.0061039804	-3.0301157E-5	0.021865007	4.2E-45	0.0032216178	0.0029752888	-8.1541174E-4	-9.3194353E-4	0.019395579	-3.0218529E-5	7.8367346E-5	-0.007941871	7.0961876E-5	-0.011732721	0.0013635082	-6.747758E-5	0.0021513763	-2.8E-45	-4.2E-45	-3.2769723E-33	7.468638E-7	0.030984633	1.3939564E-6	-1.7955165E-19	0.029567031	5.37037E-4	1.4E-45	-0.007168084	-2.5552437E-5	1.4778896E-25	0.03015786	3.6327267E-4	2.0293181E-4	0.0	7.0E-45	0.008716629	-5.4138496E-7	-1.4E-45	-0.015501556	2.2265638E-18	0.009178047	2.6182076E-7	0.0	1.1024592E-8	-2.8E-45	2.1402498E-17	-0.007612055	-0.020162513	-5.182457E-4	-0.0014565268	2.1076086E-4	-0.010933159	2.4016971E-12	-2.4870892E-6	-0.02692436	1.5416576E-32	-4.7321738E-9	-1.4E-45	-0.0108158225	1.7636031E-13	-1.6111043E-6	-0.0055345404	-2.8108837E-10	0.0021761383	0.0010835258	-0.0019775315	0.0065777875	1.5833919E-4	0.021621477	2.0262534E-30	-2.9593174E-8	3.4453446E-6	0.009918975	-1.3154003E-18	0.0035481108	6.8869672E-18	0.0011356641	4.110349E-18	-3.62303E-40	1.8188234E-7	0.008050488	3.069544E-17	0.0023495709	-2.0360394E-5	8.901642E-5	-2.705575E-25	-3.308081E-5	-0.0029023832	1.5343E-40	1.4E-45	1.622395E-8	0.016172854	3.9449583E-25	-6.418368E-4	3.817887E-13	6.657791E-28	-0.0034128558	7.4E-44	-2.3757416E-24	-0.030612778	-5.6E-45	-0.025008578	-0.018900793	0.005842765	2.7768718E-7	0.0050719185	3.5763066E-4	-5.059947E-10	0.010993897	9.045859E-16	1.6179658E-16	0.0046851807	-2.8746229E-8	-2.3751667E-9	0.008817635	0.023371149	5.985132E-4	2.7895943E-4	0.02544354	-9.2514284E-4	-0.028814366	-0.013704489	0.0052502216	-0.00839364	-0.026751034	-4.2E-45	1.4E-45	-0.014737949	-0.031541955	-1.8143305E-28	-3.6712812E-4	7.9833166E-7	-0.011724609	-1.8133565E-5	-0.0044878707	0.005313722	0.019540815	0.0073911212	-7.132738E-5	-9.1140595E-5	-1.4E-45	0.0074036536	1.9572832E-8	0.0051454664	-0.02221805	0.015114785	-0.014598441	-0.0026695915	-1.9535313E-4	-0.008432208	-0.0016565595	-0.0014471399	0.029160263	0.026468089	5.236306E-31	0.0068264385	6.9355946E-7	0.0016224998	-0.009774851	-5.4997957E-4	0.00101963	-0.01042262	0.01535566	-5.30715E-4	-0.014035962	5.735116E-9	-0.0025677218	0.0	0.015078703	0.008697172	5.046701E-25	0.0017084	4.2E-45	0.0044928915	-1.8798011E-4	-0.004077151	0.002050036	1.6335332E-11	0.002221052	-0.016940475	-0.0030006901	5.927337E-6	-9.247031E-4	-4.6239555E-16	-4.2E-45	-6.168754E-10	-0.021464946	3.1573094E-5	-0.0013864544	0.011554603	4.579276E-5	1.7496361E-10	-4.2E-45	-0.024861168
0.0262004	0.0013690953	-5.0996945E-8	0.018441381	5.523475E-6	-5.6E-45	7.2089497E-6	0.0028517686	-9.751377E-4	0.0067388862	-0.008806464	0.006767901	-0.031211797	0.013170285	0.010665102	9.444658E-22	-6.076849E-7	2.2725342E-5	0.016731154	6.3788216E-4	0.032471992	4.2400588E-19	-6.9349394E-6	1.4E-45	-4.813913E-4	-7.411459E-5	-0.023276966	3.831101E-7	0.013686057	-1.5686586E-12	4.2E-45	2.8E-45	6.851971E-4	-0.0032127136	1.7631144E-6	1.4E-45	0.0	0.0	8.2E-43	0.00901632	0.006451171	4.7528738E-4	-0.00325254	1.4E-45	6.2052763E-19	0.0022446525	0.0068599917	-0.016752435	0.027125152	3.0449974E-7	0.0	3.589679E-10	0.010288458	0.019927343	0.0146007845	-2.062913E-4	-2.9433041E-21	2.0433358E-4	-2.3692379E-5	-0.017871218	1.3223148E-26	-0.0078764325	0.007209907	5.938015E-7	-0.004969593	-4.9363442E-17	0.0	-6.9764466E-4	0.0022011292	5.023315E-33	-8.668526E-4	-0.0013034511	-5.6E-45	-2.6252525E-4	-0.019837731	-2.1825066E-26	-0.014276364	-3.683331E-5	0.005648531	0.01464826	-5.6E-45	0.01119638	1.1582853E-5	-7.659243E-7	-3.2203684E-10	-0.021609023	-0.013386298	-1.1944108E-7	1.9736091E-5	-3.5642418E-14	-0.010699173	9.063565E-9	7.452274E-5	0.0014979192	0.0011920152	0.008933303	0.02101436	3.745574E-31	-1.2517433E-5	-0.02653251	0.0036192085	0.0	1.5475966E-6	-1.0602971E-21	-1.2905491E-4	-1.6777423E-12	0.0025414343	-4.565906E-6	0.0062669297	4.964375E-13	0.0064223115	-0.009115892	4.0690517E-7	0.0	0.021667853	0.0014589762	1.2111612E-8	-1.01078326E-10	-0.0050723217	0.0021360018	2.3694034E-4	0.010066781	-1.1713619E-27	5.6E-45	0.0018129487	4.506739E-30	9.747956E-7	5.012779E-6	0.011911063	2.8E-45	-0.006249487	1.4E-45	1.10772535E-5	0.0	3.2725369E-4	4.658406E-5	0.016333528	-3.058038E-13	0.0026990601	5.842845E-4	-6.19512E-7	1.7434853E-4	0.0013116696	1.4E-45	1.2482806E-4	-0.028526995	-0.025835097	-4.2E-45	-0.032454126	0.008939304	-0.010396322	-0.0010942565	1.9241725E-6	-1.4993597E-6	0.0	5.8309422E-5	-0.02394745	-1.8184371E-8	-2.2659385E-21	1.9393018E-20	-2.070911E-18	5.2972876E-8	-0.024286976	1.2567297E-4	-4.0169686E-4	1.1034534E-7	1.3293746E-4	-1.8869845E-4	0.014468768	-2.789404E-14	-7.5428816E-32	3.4345973E-14	1.0441246E-21	0.0069559235	-0.024674583	3.2501885E-5	-7.902226E-9	-5.681333E-10	-0.019626793	-9.965399E-7	0.0027850794	-5.1623414E-5	-4.356084E-8	0.0076181525	7.8773826E-10	6.666723E-7	-1.454509E-17	-3.1316845E-18	-3.8279948E-5	9.287238E-27	0.0069405357	0.019586483	-1.0771007E-6	-0.012694682	2.6662116E-7	-0.025644114	-0.0038704162	-9.134731E-19	0.032041915	-4.2E-45
-7.2644484E-13	-2.3366819E-11	-5.109E-42	7.6984685E-9	7.051049E-9	-1.902785E-39	-1.2073388E-6	-3.2631394E-8	-1.9465427E-23	0.01553675	-8.5013895E-4	1.418813E-7	3.1673824E-9	0.014561175	-5.913465E-4	0.007213803	0.0042616646	2.2427099E-4	-6.4045423E-7	-0.0032926092	0.019613044	1.6178652E-5	0.0058681015	-0.0054263514	3.190108E-5	-3.527868E-5	0.020777876	-4.2E-45	2.8780385E-6	-1.2767516E-15	-0.001677121	0.025360914	-5.1803507E-8	-2.4878294E-31	-0.0148862	1.12159534E-4	-0.0153875165	-5.6966397E-5	-8.086409E-6	-1.1887368E-4	-0.009712633	-3.9149903E-8	7.3442943E-6	0.019466892	0.027508413	2.2510192E-16	0.0	5.054313E-4	0.02528287	-0.02738574	4.1452715E-26	3.820279E-5	-0.029937243	-0.019988393	-0.003295306	-5.6E-45	-2.3984442E-4	4.2798918E-5	-1.8160121E-12	1.10472066E-11	-3.3137303E-7	-3.1443498E-34	-0.006317542	-0.008715271	0.02965552	-3.8377728E-4	0.030326542	-4.2E-45	-0.0020912208	9.8619964E-8	-2.0408331E-30	-0.009314176	8.4479125E-12	-0.028572448	-0.022120556	-0.0014530927	-1.5642686E-4	-5.5535198E-5	9.2217867E-10	-0.03293669	0.0016577836	-0.02192815	0.019934945	2.4275864E-23	-1.2738255E-16	2.1546172E-24	-1.4175393E-4	-0.012636786	-2.9760747E-7	1.724021E-4	5.7159678E-31	-0.032516025	0.0029018698	-0.008766314	-0.010992518	-5.048453E-8	-1.4227854E-9	0.0027969975	-2.7645402E-11	8.473177E-4	2.4949639E-5	0.0	-0.005050731	0.007924141	1.5796788E-15	0.0063297316	-4.2E-45	0.018744469	2.8E-45	-1.2976944E-4	0.0059074294	-4.4162693E-6	-3.4467576E-26	2.306284E-13	0.0	0.002535954	-7.2838215E-5	0.0	5.0989947E-6	-6.517663E-11	0.017742911	-4.1191757E-5	-0.02336773	-0.0014500947	5.5552914E-4	4.9182563E-4	0.0015179013	5.4104223E-14	8.2303505E-35	-4.336797E-6	-5.8425474E-17	-0.0111885555	5.0617155E-4	6.529999E-11	5.415518E-25	0.0017317493	-4.2623456E-6	-4.015793E-7	-0.019333951	-0.0035846147	1.0932592E-4	1.557581E-18	2.986062E-8	-1.1184842E-19	-2.2119488E-15	0.002517846	-1.9331899E-6	-0.0015341392	0.013933921	1.4E-45	-0.0011652679	-0.007788461	1.7303476E-4	4.0763408E-17	-0.00954083	0.0	-2.6827824E-5	-2.6141516E-31	0.026065037	-0.030606084	0.030893326	0.002403316	-5.8646332E-8	-4.1598952E-4	-0.015507544	-0.0014990726	9.718444E-8	-2.461414E-5	-0.011029092	0.014702574	-8.965225E-10	-0.0105834715	8.8762364E-4	0.0	1.5031512E-7	0.021370448	0.018964274	0.0015018897	2.158349E-9	-0.01909296	-1.1888645E-7	4.637136E-9	-0.0015439654	-2.8E-45	-0.007378562	-2.5061303E-4	-9.249153E-5	-1.4E-45	0.017378317	0.0	0.0	0.002477727	0.0023406344	-1.17039264E-4	1.08715974E-10	-2.0663892E-6	3.1027167E-7	0.0027244955	4.2E-45	-1.9922985E-5
-1.6313109E-6	1.4E-45	1.4354227E-21	-3.6690487E-6	8.5550256E-10	0.0018282125	-1.2900764E-5	-0.011255704	2.8336808E-4	-7.019799E-4	-0.0011991663	-0.009297782	-7.004065E-10	-1.4E-45	-1.4571312E-5	0.02249869	-0.009457679	-4.728423E-9	-2.8E-45	-0.0061967797	0.017545264	2.5943787E-13	2.4083442E-4	-0.010927918	4.9508217E-6	-2.3490487E-4	3.881107E-15	0.0	1.4786439E-8	-9.245736E-27	-3.8249332E-21	0.0	6.786032E-6	-0.017773185	-0.0034431228	-5.036131E-5	0.0	2.8E-45	-1.6254208E-14	-0.012048595	2.0924096E-10	-4.1066178E-7	1.4E-45	-2.9295723E-17	-0.028231783	0.0058443337	9.50112E-10	7.943863E-4	-2.767582E-4	0.016207421	-1.3621397E-12	0.024742857	-3.109384E-7	-2.9684015E-5	5.6E-45	5.28257E-22	1.0428691E-6	0.003314206	-2.3966947E-24	0.023057377	-0.011433303	0.022499252	0.029835396	0.016474124	1.7177051E-16	-1.5111283E-35	-1.09279856E-4	-3.6919923E-4	-5.3419743E-4	6.5632494E-26	0.016539363	-7.7663685E-8	-1.0109193E-11	-1.9145622E-35	2.586119E-7	0.020257138	0.018763006	-0.007658728	-5.0843856E-18	-7.035501E-13	-1.2885737E-25	-0.0048191403	1.4E-45	-0.023054121	3.0079533E-17	0.0023006154	0.0015048498	0.012569153	-0.03245286	-0.0012305756	0.014797418	0.0	4.2E-45	0.0028933154	2.8E-45	0.03217341	-0.002214499	-1.635404E-27	0.016299693	-0.010636165	0.003895453	3.5256196E-6	-4.2583258E-4	0.01389518	-0.010003443	-8.3220556E-7	0.0016151029	4.2E-45	8.5267465E-7	0.019261036	0.012869719	7.0E-45	1.018263E-8	0.001415556	0.0019017396	6.2631498E-6	-9.2820905E-5	0.0	-9.896963E-6	-8.06399E-9	-0.008260423	9.025735E-7	-0.029875275	0.0	1.7084725E-10	-1.6450584E-5	4.8418582E-4	0.027842917	0.020999502	-4.2E-45	2.6829421E-17	2.1326325E-7	1.4277945E-6	-0.030439386	1.4E-45	-5.6E-45	0.020827774	-6.971271E-4	0.007395515	-0.029049022	0.016713308	-8.9854366E-5	0.014620937	-1.9138262E-19	0.0017855309	-0.01226116	1.4E-45	2.0103444E-5	-1.4017501E-6	0.016680745	-7.0E-45	-0.00444401	-5.2551926E-27	2.8E-45	-5.6E-45	-7.346001E-13	-0.0017093935	-0.008266892	-0.0041839248	6.743837E-8	3.1898892E-4	2.1630315E-6	-1.696225E-14	-0.022274895	1.0823692E-5	1.2174594E-7	2.4384823E-5	0.029300235	9.549203E-7	0.020150267	0.0010958482	0.023682728	0.03239342	8.017252E-33	-0.005772416	7.629028E-12	3.83E-43	-1.5671091E-4	-0.03297878	4.491958E-5	-1.3039983E-5	-5.4640502E-8	0.031410694	-2.5975733E-4	1.0406394E-5	5.5478805E-10	-2.3874293E-22	-3.4663586E-5	-6.336988E-9	-1.4E-45	-0.028624978	0.018576171	-1.47E-43	1.9549257E-6	0.013437001	-0.002820999	-2.4760644E-7	-0.0031645035	0.006784731	-3.3834164E-7
-7.0E-45	0.011385086	-3.2507746E-11	0.007802667	-9.8198525E-6	-2.17417E-40	1.7024969E-13	1.4E-45	0.029272942	5.324136E-4	1.7404112E-12	4.2085366E-18	-0.016524123	-0.004995522	-0.0020875714	1.4E-45	1.788058E-28	-0.02183369	1.7532378E-5	0.010506982	4.6798343E-11	1.6963764E-31	-0.0010158048	-4.2E-45	-0.007891401	-7.4171583E-4	0.007371927	-0.0013958649	-8.3009125E-4	0.011238837	-4.7949692E-5	2.3389855E-6	-0.029762344	0.0	0.008326041	2.6740717E-19	-2.462644E-6	-1.1484833E-9	-0.013325685	0.0	0.006485799	3.1053697E-4	-4.363011E-8	0.025489746	2.8E-45	-1.4E-45	-6.614824E-5	-2.2302236E-5	7.930503E-4	8.446968E-17	0.013135858	-0.02441297	0.012009602	0.00993499	0.011350089	1.04196835E-4	-7.0E-45	1.6311598E-10	-2.7001113E-6	0.01897469	-0.013712021	0.008809334	0.0101971375	2.694722E-11	-6.0874332E-5	-3.564604E-17	-3.7658776E-4	-1.5944334E-30	3.2103028E-6	-0.0025826388	3.9755306E-4	0.0	0.013564443	-7.694263E-5	-0.014136726	-0.00785937	0.012606733	0.03041901	2.3811788E-7	-7.313816E-7	3.1935755E-13	2.861466E-25	5.6E-45	2.6854481E-8	0.015509267	0.0	1.4E-45	-1.0194423E-5	0.028295318	-1.0170422E-5	0.002603567	1.0515982E-22	5.576439E-4	-2.3793834E-4	-3.9265896E-7	-1.328884E-7	1.5618E-40	5.2373044E-19	-4.2E-45	4.2E-45	-2.8E-45	-1.483048E-17	0.025112335	-1.103793E-13	0.010747591	-5.183687E-8	-0.004852203	-0.008707578	-1.9122096E-4	0.029921789	-0.017505376	0.0	1.9215032E-21	1.1901393E-5	-7.1486113E-7	0.016225187	1.973526E-9	-0.0062060556	-8.84977E-4	-0.01961289	6.9404186E-15	-1.0469846E-5	0.0038179958	-2.8E-45	1.6182197E-4	0.0	0.0039126263	-0.022034861	1.4E-45	4.5732364E-8	8.719756E-4	0.0	4.5277293E-12	-3.2188997E-5	0.0	1.12407676E-14	0.022583596	-1.6783099E-7	7.561355E-8	0.0015239441	-0.030826142	-3.1578902E-6	0.0010242175	0.0	-1.4E-45	4.8985838E-9	0.009706618	-0.0046201632	-9.334979E-8	2.7110073E-5	-1.5563E-41	-0.003600072	1.742304E-13	0.029419972	-0.007858171	-3.2042968E-4	1.7033145E-6	2.8E-45	-6.7173946E-6	0.021950517	-0.008615064	4.3386243E-15	-5.647137E-10	-7.801195E-7	-6.342173E-4	0.010368869	1.0203586E-10	0.029316088	-7.50652E-4	-0.022372605	-0.0053719766	-8.554795E-10	1.0263118E-13	0.025856148	-1.3123147E-4	-0.028921038	3.6604542E-5	-6.4527605E-11	8.0104935E-25	2.7300109E-9	-2.8E-45	1.4E-45	5.04382E-34	2.9015556E-4	-1.1684775E-13	1.9342967E-6	2.1065482E-4	-0.004735382	-7.1001756E-5	1.4329315E-24	-9.463359E-15	2.8E-45	0.0	-0.021231616	0.021495301	-1.6460597E-5	-2.9105897E-7	0.008268124	5.6E-45	-2.017983E-5
-4.2E-45	3.2490716E-5	7.830925E-7	2.8E-45	0.0019838505	1.766381E-8	0.013437494	4.8131478E-4	1.4E-45	1.00549696E-4	-6.2224084E-14	3.070002E-6	-9.1547335E-37	-4.8071743E-27	4.2E-45	-0.018981136	4.3543155E-35	-0.023151284	9.033425E-19	-0.032841347	-0.0107082985	-2.9E-44	-1.02166615E-30	7.244995E-14	-0.005456104	0.0155932605	1.2659618E-5	-0.0021245545	-3.3801845E-10	0.008673129	-0.0048191324	0.023576492	-0.00846458	-0.032865047	0.0014175188	2.7646012E-16	1.5339511E-6	0.0	-8.15831E-28	0.00712549	-0.0037553764	-0.008084598	-4.2E-45	1.4E-45	0.008118933	8.870956E-5	-2.8E-45	0.023328364	5.6E-45	-0.026399998	-1.7598576E-29	-2.5276629E-8	0.014168986	7.827346E-13	1.6377756E-19	0.0	-2.5930698E-36	0.006044833	0.019352809	-1.7939661E-10	-1.1186611E-5	-1.4896371E-8	-4.424726E-5	0.011041431	0.0	0.008864957	7.996492E-21	0.0012447479	-3.126799E-13	0.008848675	-3.7948926E-16	5.686025E-10	3.2758737E-5	-0.0058658915	-0.004648977	-3.7102018E-7	-3.1848837E-4	1.4E-45	-0.005402088	-5.617453E-4	2.8E-45	-2.5805226E-4	2.0016101E-5	-1.4936971E-33	3.176383E-5	-0.004457611	0.0012806559	0.026062138	-0.009465353	-0.0047251945	-0.0046529826	1.2543849E-32	-1.4E-45	-1.73334E-12	0.007947529	6.263564E-4	3.8970046E-15	-7.86665E-8	-0.018869517	0.0	5.673694E-4	0.021588242	-0.013450194	-6.0983254E-9	4.224576E-17	-2.3334964E-16	-0.013896655	7.037317E-33	-0.0216802	-1.2185331E-36	-0.01441372	2.0509217E-6	0.030922111	5.6E-45	-0.029022222	2.4088988E-11	-0.0017895451	4.50945E-18	-0.0019311234	0.0065303254	0.0044909013	-9.155934E-5	-3.7791696E-14	0.013246118	-3.7951104E-9	-5.2022124E-12	-2.3765352E-7	0.016440187	-3.2019254E-4	-4.5232537E-30	0.0065326956	-0.0042081694	0.0026557348	-0.0060660983	-5.6E-45	2.989312E-29	0.0019223004	0.0049401233	0.016852634	0.005681529	0.025433205	-5.6E-45	-0.0072455294	1.4E-45	4.2E-45	0.024531204	-0.0039831214	1.3639479E-7	-2.8E-45	1.7119356E-17	-0.022317218	4.8770406E-5	-2.8E-45	1.1388328E-6	-9.5654E-22	-0.021136012	-1.2304772E-10	1.4E-45	-1.0110393E-16	1.7194544E-7	-7.281801E-8	3.1305573E-11	-0.007473912	-1.799495E-10	2.1929734E-6	2.8E-45	-0.014715106	0.010511461	0.008626963	-0.016654115	1.25720145E-14	1.3524929E-8	-1.4E-45	6.716947E-5	-5.6E-45	-0.030028075	1.4488999E-4	0.019111866	-0.009618885	-3.164909E-4	5.3072463E-6	-0.01967965	0.005936507	-0.023682484	0.0026398837	5.4790697E-5	1.4826597E-7	1.1507785E-10	-0.016092239	-1.1247562E-6	-1.08197645E-10	-2.549418E-21	0.0	5.1465936E-6	-1.7153525E-18	3.6901633E-7	0.0033268977	1.1362764E-25	-7.850757E-7	-0.021039868
4.0488035E-6	5.9067065E-21	-0.0027022716	1.9397292E-15	0.0	-6.9618335E-7	-0.01893416	1.6804039E-5	-5.6E-45	0.0	-6.3295545E-7	-8.431474E-8	0.004645987	0.0018006414	1.8173153E-9	9.190636E-11	1.4E-45	-0.006652915	2.4288378E-9	-7.083339E-7	1.3455478E-14	0.0	-0.024440922	-9.76812E-6	1.7884559E-9	-0.0066299215	4.193149E-15	-4.4803623E-5	1.1018989E-25	0.0	3.6424102E-4	2.5308762E-7	2.5210336E-5	0.0029514914	-1.3210622E-7	1.3596823E-5	-0.009179805	-7.8782774E-28	0.009868962	-0.029493287	-0.01240372	-0.017697947	0.027120853	-0.0075974055	0.030908275	0.0075451625	-2.4860725E-11	3.976782E-9	8.4233744E-7	-2.8E-45	-0.021574741	4.595642E-7	-0.012401174	-0.0011336647	-4.0940756E-7	-2.5320268E-27	-1.2992216E-13	5.183143E-6	2.8E-45	3.5869765E-11	-0.004179486	0.0071422746	-2.0631704E-4	-5.6E-45	-1.8073577E-19	-9.112603E-5	-0.013592734	5.802258E-14	7.7842935E-13	-0.0017717904	4.3030935E-17	1.8759605E-23	3.921657E-7	3.2994868E-15	-1.00545306E-20	-0.0028634684	-2.0998088E-9	-7.2480475E-6	-0.003368218	-0.007361456	-3.2207125E-4	-1.6176116E-4	-0.0041610827	0.0015281122	-0.032123446	-0.027996765	-4.351691E-6	2.5358045E-4	-0.03206514	-0.009091394	-6.3846357E-13	-1.3622735E-13	0.0	-5.8706035E-4	0.010677275	1.06125684E-4	-5.6E-45	8.669748E-5	9.214623E-24	0.017186822	1.3873912E-5	-2.8394368E-12	0.010475983	-2.4194832E-16	-4.341496E-6	0.0	0.007327602	-0.0025441449	4.3477623E-24	-1.5616072E-10	-2.8E-45	0.028518302	-4.0772587E-33	1.4E-45	5.2367644E-10	0.0	-6.1212555E-15	-1.262281E-7	4.96751E-7	0.0026680217	-2.6968466E-5	-0.008396721	6.399128E-6	-5.48148E-4	-3.32549E-4	1.8377332E-7	5.04234E-6	-1.21011384E-4	0.01690624	-0.0030226123	1.4E-45	7.330169E-4	0.020910297	-9.791E-42	-0.019775903	-0.011880398	-1.4E-45	0.0	-5.388898E-16	-0.017572358	8.487448E-5	1.4E-45	-1.4051867E-23	-6.4472836E-15	-1.8283034E-12	-0.0076837786	-1.1427507E-8	-0.022466227	1.115458E-26	-5.106093E-7	-0.01651102	0.002974758	-0.023247965	0.001386727	-0.03223452	-3.8915327E-10	-7.25327E-5	0.022082914	3.2037808E-4	9.372549E-17	0.006386715	1.2476706E-4	-5.6E-45	0.0	7.8061765E-13	-0.0023874955	9.631159E-6	2.8502877E-4	0.0043002726	-5.147015E-4	-0.0011320737	-7.0554704E-12	0.00853424	4.8841385E-4	0.022265883	-0.006423109	-5.198194E-4	-0.032577336	-0.002011486	0.0029659846	-0.0051685995	3.0933646E-4	0.022806007	-1.4756609E-5	6.7603436E-38	2.0673912E-4	4.2E-45	-0.018728828	0.010227924	0.0047050426	-2.3477408E-7	0.027241189	-7.20616E-21	-1.5511894E-5	-6.40167E-21	-7.0592406E-4	-2.3470253E-4	0.0043280637	3.1356088E-8	4.3790418E-4
4.2E-45	-0.016395578	0.028922724	1.1854007E-19	-1.1214646E-5	-4.2E-45	3.170776E-5	1.4510594E-4	-0.019161705	1.1244667E-14	0.025834294	0.018201469	2.2421424E-4	0.029947672	0.009699131	-1.4E-45	2.3503055E-9	-0.0036685432	9.689433E-5	0.021153953	1.0539218E-6	1.673046E-5	-0.0039227013	-3.9174344E-7	1.8248773E-12	-1.0754404E-28	2.8E-45	0.009151782	6.1188112E-9	-5.8532873E-4	0.0010055109	-1.415078E-10	-0.0022220714	5.7857006E-4	1.4E-45	8.0471444E-5	-5.478754E-9	1.3734474E-28	-4.4994862E-4	-0.019335994	-0.03226993	-1.543307E-4	1.612212E-29	-0.01336432	-7.2173275E-6	1.3492237E-8	2.0851555E-35	-0.005051068	-5.6E-45	1.4619524E-33	-7.848371E-9	3.6444668E-18	3.2872704E-5	7.1463694E-7	-0.0036938624	-0.001585376	1.5388404E-11	2.4901095E-12	5.6E-45	1.704427E-4	0.011935032	0.0014984051	1.0030843E-6	4.2217155E-4	-6.5647495E-5	1.9066247E-8	-4.336859E-17	-0.01930084	2.7299844E-5	-6.005255E-4	-0.024076331	2.9920906E-4	4.2067626E-5	-4.2E-45	4.581453E-11	-0.011642265	-0.017174367	-7.223671E-6	-1.4924351E-4	-2.8E-45	3.4778472E-4	-5.443564E-4	-0.0061963396	0.0	9.840962E-5	0.0	-0.00988334	-1.2841481E-9	-5.3098165E-7	-2.1212608E-10	-1.4E-45	1.3699269E-4	0.0029861755	-0.0031001696	-1.1399822E-21	7.323906E-4	-1.9133911E-5	4.6930563E-5	5.6E-45	2.119682E-4	1.299549E-11	-9.881791E-4	-6.5924414E-6	-1.3070303E-4	-2.8E-45	6.757019E-6	-2.4378462E-5	-0.015160657	-2.8780738E-20	-4.9038697E-4	0.001474893	0.023327177	0.008391858	0.006937711	-7.0E-45	-0.027849436	1.00577476E-4	3.051277E-16	-3.170023E-23	7.1237844E-7	-0.0045036613	1.0459407E-9	-1.10226225E-4	1.9508282E-25	-4.326836E-4	-3.028029E-13	7.849923E-9	8.370001E-5	-0.0029560297	2.8E-45	-0.013796455	-5.6E-45	9.037243E-22	-0.023791716	-2.6412494E-4	-5.666874E-23	6.8123496E-5	0.03231342	-1.1049628E-14	5.835886E-5	1.9828925E-9	0.0059581017	-2.3427484E-8	1.7112538E-6	0.0	1.7005048E-11	-0.016479801	5.970675E-10	0.0018781631	0.0020434891	2.0369E-41	0.0038384919	-1.9082782E-23	-8.72385E-7	-1.8841402E-10	-1.4465472E-4	-9.537492E-6	-2.24086E-6	0.017466769	2.4257504E-31	0.0	-2.0172727E-34	-1.630031E-5	0.0057285395	0.027715772	1.5521331E-12	-5.0216964E-5	-5.655836E-7	-0.004799731	4.4335958E-4	1.0281768E-13	0.010906536	-4.2E-45	-5.0538088E-6	0.0036893834	6.1485865E-25	0.007846072	-2.9975268E-13	5.6E-45	-2.0E-44	-0.007951568	-5.3136685E-4	-0.002549843	0.012027954	-7.0E-45	1.2358715E-5	0.009304425	-0.020397699	-0.006218453	-0.0068071117	2.679907E-11	2.0604934E-4	-1.7885557E-17	1.8586114E-5	-0.02642841	3.6638645E-5	-3.270679E-7	3.9745133E-13	-0.005590508	7.504688E-4
5.155142E-4	2.8E-45	-0.022702232	-3.1918415E-7	-9.902777E-4	-0.0013013919	2.7522241E-15	0.0059344787	-0.0012426076	-0.0039296057	-6.6983793E-4	-4.175597E-5	-0.0074295863	2.4384863E-4	0.026445275	6.517456E-9	-2.2678346E-7	2.5142384E-7	-0.030745273	2.0954454E-8	-0.026486961	0.0020999112	1.4E-45	1.4414261E-5	-0.004502374	0.013668707	-2.6586176E-5	2.8E-45	5.316193E-4	-3.5660502E-13	0.0	3.1111676E-17	0.02309473	0.0	-0.019521274	3.762964E-6	-0.01031837	2.8E-45	-0.013768056	0.0	2.0424213E-5	-6.683208E-4	0.031673133	0.0019272899	-2.3333378E-16	2.3900107E-14	8.554795E-10	-0.0043319543	-4.8681597E-18	3.414197E-15	-3.560799E-10	7.886047E-11	5.5406763E-5	-0.007566854	-1.4703487E-4	-0.0066555724	-0.0021884064	4.0298403E-4	-1.3243656E-15	7.409859E-8	-2.208201E-11	2.0781654E-32	-8.171239E-5	4.2E-45	-0.019227302	8.77984E-40	-7.171862E-5	-2.3407825E-23	0.0	-6.126831E-8	3.5029737E-4	5.6E-45	0.0038153543	-0.024884565	0.0049703107	-0.002593045	-0.001005338	0.0010123632	7.8437296E-22	0.011265277	-4.2708826E-11	0.0041744392	-4.688299E-5	4.2E-45	1.8789477E-27	2.4033371E-29	5.59013E-4	5.6E-45	0.0	-1.9567578E-4	-1.4E-45	7.36768E-5	-0.0035674856	-0.0153944455	-4.7254666E-6	0.010220553	-2.6502762E-9	-0.010440126	0.0054104053	-6.172922E-5	1.4E-45	1.0361601E-8	5.7207133E-10	0.0039444794	1.5463E-4	0.0071820514	0.010044042	0.0011272057	2.7802677E-8	-0.007448354	2.3247969E-5	0.004036099	4.708532E-20	2.538696E-4	4.2E-45	2.9423649E-30	0.0014444513	-0.031141706	0.0021773558	0.0089477515	0.023465164	5.6E-45	-0.0010022101	2.5319582E-4	0.0	-4.784497E-6	0.003473491	0.018793428	0.0017219107	-2.18409E-35	-1.0332864E-27	-1.3321789E-13	0.012320762	4.458076E-5	-2.6790936E-10	0.031288538	-4.0739692E-20	-4.8971528E-5	1.0312571E-5	0.006777402	-2.4986892E-12	-6.1382908E-9	-1.2746179E-33	-0.010205385	-0.03113653	-7.5330485E-5	-8.2675024E-14	1.1759364E-13	0.0012837424	-7.4478093E-4	0.0020054188	-1.3596962E-4	0.0112874815	-0.004795508	1.0646433E-11	-1.2106648E-10	-1.6851298E-10	-0.022188926	-4.4136454E-20	-9.593939E-5	6.140563E-7	0.023449214	2.5067097E-21	0.0	-0.022519393	-2.8E-45	-6.2288713E-25	0.006030436	-3.7347247E-24	4.844137E-4	-7.2106143E-9	-7.7736404E-33	0.0	0.0039815875	-0.027146617	5.6590257E-9	0.020196497	2.8836523E-5	-6.6347276E-8	-1.114626E-9	1.6990525E-4	0.028639978	0.031739138	5.664652E-4	-2.8E-45	0.0033772674	9.740005E-4	-1.9916395E-5	-1.9068619E-4	-0.0012574261	0.007180794	1.4E-45	0.012676607	-1.4676984E-29	-0.026161913	-1.54698E-7	-0.0043988745	-4.9207456E-9	0.021831663	2.4739708E-17
